{"learner":{"attributes":{"best_iteration":"71","best_score":"0.01916617044036519"},"feature_names":["tmean","rh","wind","rain","vpd","rain_14d_sum","rain_30d_sum","vpd_14d_mean","vpd_30d_mean","dryness_14d","dryness_30d","consecutive_dry_days","wind_vpd","fire_lag_1","fire_lag_3","dem_mean","dem_stdev","slp_mean","slp_stdev","aspect_sin","aspect_cos","sin_doy","cos_doy","neighbor_count","neighbor_fire_1d","neighbor_fire_3d","neighbor_fire_7d","neighbor_fire_ratio_1d","neighbor_fire_ratio_3d","neighbor_fire_ratio_7d"],"feature_types":["float","float","float","float","float","float","float","float","float","float","float","float","float","float","float","float","float","float","float","float","float","float","float","float","float","float","float","float","float","float"],"gradient_booster":{"model":{"cats":{"enc":[],"feature_segments":[],"sorted_idx":[]},"gbtree_model_param":{"num_parallel_tree":"1","num_trees":"172"},"iteration_indptr":[0,1,2,3,4,5,6,7,8,9,10,11,12,13,14,15,16,17,18,19,20,21,22,23,24,25,26,27,28,29,30,31,32,33,34,35,36,37,38,39,40,41,42,43,44,45,46,47,48,49,50,51,52,53,54,55,56,57,58,59,60,61,62,63,64,65,66,67,68,69,70,71,72,73,74,75,76,77,78,79,80,81,82,83,84,85,86,87,88,89,90,91,92,93,94,95,96,97,98,99,100,101,102,103,104,105,106,107,108,109,110,111,112,113,114,115,116,117,118,119,120,121,122,123,124,125,126,127,128,129,130,131,132,133,134,135,136,137,138,139,140,141,142,143,144,145,146,147,148,149,150,151,152,153,154,155,156,157,158,159,160,161,162,163,164,165,166,167,168,169,170,171,172],"tree_info":[0,0,0,0,0,0,0,0,0,0,0,0,0,0,0,0,0,0,0,0,0,0,0,0,0,0,0,0,0,0,0,0,0,0,0,0,0,0,0,0,0,0,0,0,0,0,0,0,0,0,0,0,0,0,0,0,0,0,0,0,0,0,0,0,0,0,0,0,0,0,0,0,0,0,0,0,0,0,0,0,0,0,0,0,0,0,0,0,0,0,0,0,0,0,0,0,0,0,0,0,0,0,0,0,0,0,0,0,0,0,0,0,0,0,0,0,0,0,0,0,0,0,0,0,0,0,0,0,0,0,0,0,0,0,0,0,0,0,0,0,0,0,0,0,0,0,0,0,0,0,0,0,0,0,0,0,0,0,0,0,0,0,0,0,0,0,0,0,0,0,0,0],"trees":[{"base_weights":[1.4897923E-8,-1.2123692E0,8.816653E-1,-1.4254478E0,7.222422E-2,1.2545915E0,2.3506662E-1,-1.4638473E0,1.5721275E0,5.56449E-1,-8.1639117E-1,-3.013592E-1,1.3279688E0,-3.0321974E-1,6.5218467E-1,-1.7906493E0,-1.1994574E0,1.7090273E-1,1.6302674E0,3.6224198E-1,1.8511571E0,-9.2183703E-1,1.6536465E0,-8.968088E-1,8.0295104E-1,1.2192705E0,1.860946E0,3.0501053E-1,-9.28728E-1,-5.029243E-2,9.245066E-1,-1.4302293E0,-1.8599763E0,-1.5433857E0,-8.9160615E-1,7.101629E-1,-1.2210883E0,1.6431822E0,-5.981309E-1,5.39183E-1,-9.0224856E-1,1.8541191E0,-5.925926E-1,-1.4390281E0,-6.0640824E-1,1.6761508E0,-5.945455E-1,-1.1998578E0,1.5726225E-1,-1.4556882E0,9.86619E-1,1.4140021E0,7.667833E-1,1.8613424E0,-5.952569E-1,6.0858196E-1,-5.7153827E-1,-9.770991E-1,1.4844526E0,-1.263024E-1,1.6441396E0,7.934087E-1,1.823593E0,-3.5490426E-1,-5.005027E-1,-5.590856E-1,1.9377173E-1,-4.8702526E-1,-2.7268943E-1,-7.910702E-2,-3.299245E-1,2.897138E-1,-5.974332E-1,4.4938254E-1,-5.9926337E-1,4.0717268E-1,5.1538664E-1,1.2682587E-1,5.232029E-1,-2.471934E-1,-5.998942E-1,5.570673E-1,-5.920792E-1,-1.9013989E-1,-4.6248546E-1,-2.6528716E-1,2.1121029E-2,2.6215774E-1,5.2373815E-1,-4.086604E-1,3.733938E-2,-4.034063E-1,1.6059195E-1,-4.855026E-1,5.0875694E-1,2.586172E-1,5.539047E-1,2.6397675E-1,4.6610057E-1,-9.906816E-2,3.561347E-1,5.631675E-1,5.3287375E-1,3.6251158E-2,2.804159E-1,-2.3680638E-1,4.2284995E-2,-3.63598E-1,-1.681195E-1,-4.677303E-2,4.573991E-1,-1.756717E-1,4.34573E-2,-5.964126E-1,4.9944732E-1,2.1474902E-1,5.0360036E-1,-5.925926E-1,5.4748553E-1],"categories":[],"categories_nodes":[],"categories_segments":[],"categories_sizes":[],"default_left":[0,0,0,0,0,0,0,0,0,0,0,0,0,0,0,0,0,0,0,0,0,0,0,0,0,0,0,0,0,0,0,0,0,0,0,0,0,0,0,0,0,0,0,0,0,0,0,0,0,0,0,0,0,0,0,0,0,0,0,0,0,0,0,0,0,0,0,0,0,0,0,0,0,0,0,0,0,0,0,0,0,0,0,0,0,0,0,0,0,0,0,0,0,0,0,0,0,0,0,0,0,0,0,0,0,0,0,0,0,0,0,0,0,0,0,0,0,0,0],"id":0,"left_children":[1,3,5,7,9,11,13,15,17,19,21,23,25,27,29,31,33,35,37,39,41,43,45,47,49,51,53,55,57,59,61,63,65,67,69,71,73,75,-1,77,79,81,-1,83,85,87,-1,89,91,93,95,97,99,101,-1,103,105,107,109,111,113,115,117,-1,-1,-1,-1,-1,-1,-1,-1,-1,-1,-1,-1,-1,-1,-1,-1,-1,-1,-1,-1,-1,-1,-1,-1,-1,-1,-1,-1,-1,-1,-1,-1,-1,-1,-1,-1,-1,-1,-1,-1,-1,-1,-1,-1,-1,-1,-1,-1,-1,-1,-1,-1,-1,-1,-1,-1],"loss_changes":[2.2001012E7,2.372081E6,2.87351E6,8.556E5,5.305282E5,8.6288E5,9.787068E5,6.34122E5,7.6589844E3,2.0066734E5,1.1326966E5,2.2381261E5,4.18128E5,7.240245E5,4.69809E5,8.2009E4,4.295455E5,2.8132776E3,4.2282656E3,1.5527075E5,1.1834688E3,6.804044E4,1.4600508E3,7.063755E4,4.9465133E4,5.2822E5,1.8675E3,2.5674375E5,1.0951625E5,8.836298E4,2.0860162E5,3.1166125E4,2.5126E4,9.72915E4,2.797885E5,1.8667603E3,2.212457E3,1.920875E3,0E0,8.539894E4,7.315539E3,1.1072188E3,0E0,1.3051594E4,4.872554E4,9.872461E2,0E0,3.692614E4,2.803904E4,4.5994453E3,1.1807094E4,3.12625E5,8.31692E5,1.6495E3,0E0,1.1400019E5,3.8518297E4,9.002669E4,1.216332E3,8.177336E4,2.2163125E3,1.0607631E5,1.1660625E3,0E0,0E0,0E0,0E0,0E0,0E0,0E0,0E0,0E0,0E0,0E0,0E0,0E0,0E0,0E0,0E0,0E0,0E0,0E0,0E0,0E0,0E0,0E0,0E0,0E0,0E0,0E0,0E0,0E0,0E0,0E0,0E0,0E0,0E0,0E0,0E0,0E0,0E0,0E0,0E0,0E0,0E0,0E0,0E0,0E0,0E0,0E0,0E0,0E0,0E0,0E0,0E0,0E0,0E0,0E0,0E0],"parents":[2147483647,0,0,1,1,2,2,3,3,4,4,5,5,6,6,7,7,8,8,9,9,10,10,11,11,12,12,13,13,14,14,15,15,16,16,17,17,18,18,19,19,20,20,21,21,22,22,23,23,24,24,25,25,26,26,27,27,28,28,29,29,30,30,31,31,32,32,33,33,34,34,35,35,36,36,37,37,39,39,40,40,41,41,43,43,44,44,45,45,47,47,48,48,49,49,50,50,51,51,52,52,53,53,55,55,56,56,57,57,58,58,59,59,60,60,61,61,62,62],"right_children":[2,4,6,8,10,12,14,16,18,20,22,24,26,28,30,32,34,36,38,40,42,44,46,48,50,52,54,56,58,60,62,64,66,68,70,72,74,76,-1,78,80,82,-1,84,86,88,-1,90,92,94,96,98,100,102,-1,104,106,108,110,112,114,116,118,-1,-1,-1,-1,-1,-1,-1,-1,-1,-1,-1,-1,-1,-1,-1,-1,-1,-1,-1,-1,-1,-1,-1,-1,-1,-1,-1,-1,-1,-1,-1,-1,-1,-1,-1,-1,-1,-1,-1,-1,-1,-1,-1,-1,-1,-1,-1,-1,-1,-1,-1,-1,-1,-1,-1,-1],"split_conditions":[8.6382246E-1,8.717063E-1,1.5211256E0,1E0,8.0984474E1,-2.553533E-1,1.772319E1,5.053609E-1,4.7718477E-1,1E0,1E0,1.2148937E0,1E0,5.4934247E2,-7.3249406E-1,1.58998165E1,3.8448231E0,1.5457166E-2,1.263298E0,2.7370148E0,4.520722E-1,4.9271855E-1,3.8963044E-1,2.7868906E1,3.98473E1,3.8267273E2,3.3902046E1,3.911072E2,1E0,1E0,1E0,1.9928735E0,2.6975784E1,6.4862955E-1,-8.9963084E-1,2.9527363E3,2.4852063E-1,6.4503247E-1,-5.981309E-1,1E0,4.213201E1,1.4249922E0,-5.925926E-1,2.0239005E2,5.2542596E2,4.7718477E-1,-5.945455E-1,-1.9321227E-1,3.98473E1,1.6497787E0,1E0,3.253421E-1,6.404956E0,2.7408655E1,-5.952569E-1,1.07381344E-1,3.321362E0,9.610766E0,-9.6461415E-1,1.0423301E0,2.5862207E1,1E0,5.450131E0,-3.5490426E-1,-5.005027E-1,-5.590856E-1,1.9377173E-1,-4.8702526E-1,-2.7268943E-1,-7.910702E-2,-3.299245E-1,2.897138E-1,-5.974332E-1,4.4938254E-1,-5.9926337E-1,4.0717268E-1,5.1538664E-1,1.2682587E-1,5.232029E-1,-2.471934E-1,-5.998942E-1,5.570673E-1,-5.920792E-1,-1.9013989E-1,-4.6248546E-1,-2.6528716E-1,2.1121029E-2,2.6215774E-1,5.2373815E-1,-4.086604E-1,3.733938E-2,-4.034063E-1,1.6059195E-1,-4.855026E-1,5.0875694E-1,2.586172E-1,5.539047E-1,2.6397675E-1,4.6610057E-1,-9.906816E-2,3.561347E-1,5.631675E-1,5.3287375E-1,3.6251158E-2,2.804159E-1,-2.3680638E-1,4.2284995E-2,-3.63598E-1,-1.681195E-1,-4.677303E-2,4.573991E-1,-1.756717E-1,4.34573E-2,-5.964126E-1,4.9944732E-1,2.1474902E-1,5.0360036E-1,-5.925926E-1,5.4748553E-1],"split_indices":[4,21,3,24,1,21,16,4,4,24,24,8,24,6,22,3,18,19,8,2,22,4,22,0,15,15,17,15,24,24,24,2,0,21,21,6,12,4,0,25,3,7,0,6,15,4,0,9,15,8,24,22,17,0,0,22,18,16,22,4,0,26,17,0,0,0,0,0,0,0,0,0,0,0,0,0,0,0,0,0,0,0,0,0,0,0,0,0,0,0,0,0,0,0,0,0,0,0,0,0,0,0,0,0,0,0,0,0,0,0,0,0,0,0,0,0,0,0,0],"split_type":[0,0,0,0,0,0,0,0,0,0,0,0,0,0,0,0,0,0,0,0,0,0,0,0,0,0,0,0,0,0,0,0,0,0,0,0,0,0,0,0,0,0,0,0,0,0,0,0,0,0,0,0,0,0,0,0,0,0,0,0,0,0,0,0,0,0,0,0,0,0,0,0,0,0,0,0,0,0,0,0,0,0,0,0,0,0,0,0,0,0,0,0,0,0,0,0,0,0,0,0,0,0,0,0,0,0,0,0,0,0,0,0,0,0,0,0,0,0,0],"sum_hessian":[2.0582776E7,8.666103E6,1.1916673E7,7.433149E6,1.2329541E6,7.557741E6,4.358932E6,7.3391335E6,9.4015305E4,7.980699E5,4.3488425E5,3.403657E5,7.2173755E6,1.9030571E6,2.4558748E6,3.2821685E6,4.0569652E6,3.745657E3,9.026965E4,6.9397456E5,1.0409531E5,4.1707975E5,1.7804506E4,2.2113095E5,1.1923473E5,5.9947715E6,1.222604E6,9.6485456E5,9.3820256E5,6.860787E5,1.769796E6,5.294846E5,2.7526838E6,1.916201E6,2.1407642E6,2.7001162E3,1.0455406E3,8.994965E4,3.2E2,6.087871E5,8.518743E4,1.0401531E5,8E1,1.5800469E5,2.5907506E5,1.7695506E4,1.09E2,1.7175162E5,4.9379332E4,8.966244E3,1.10268484E5,4.191096E6,1.8036755E6,1.2224785E6,1.255E2,7.166578E5,2.4819675E5,9.197668E5,1.8435715E4,6.566243E5,2.9454371E4,1.5445791E6,2.2521684E5,2.5978012E5,2.6970447E5,2.7486888E6,3.995029E3,1.7015501E6,2.1465097E5,5.3295756E5,1.6078066E6,2.4673662E3,2.3275E2,2.320407E2,8.135E2,1.8649883E4,7.1299766E4,5.5514156E5,5.364555E4,7.951768E4,5.66975E3,1.0394056E5,7.475E1,1.785647E4,1.4014822E5,1.83666E5,7.540906E4,1.4144535E3,1.6281052E4,1.5299639E5,1.8755244E4,9.929075E3,3.9450254E4,8.526663E3,4.395814E2,9.63158E4,1.3952686E4,8.688085E5,3.3222875E6,4.99652E5,1.3040235E6,1.0301836E6,1.9229484E5,2.8717847E5,4.294793E5,1.9008527E5,5.8111477E4,5.8819794E5,3.3156888E5,4.410407E2,1.7994674E4,2.437605E5,4.128638E5,1.6625E2,2.9288121E4,1.4201295E6,1.24449664E5,8E1,2.2513684E5],"tree_param":{"num_deleted":"0","num_feature":"30","num_nodes":"119","size_leaf_vector":"1"}},{"base_weights":[-4.0526217E-4,-8.29489E-1,7.057147E-1,-1.0378786E0,1.1701111E-1,9.894738E-1,2.8670552E-1,-1.2573072E0,-6.5283513E-1,5.3468454E-1,-4.970506E-1,-2.1476117E-1,1.0332339E0,1.9383568E-1,1.3683568E0,-1.4946935E0,-1.1432506E0,-1.0261248E0,-2.5349912E-1,6.717564E-1,-6.5369284E-1,-5.8582944E-1,1.2829087E0,-9.3573195E-1,3.7809756E-1,9.530807E-1,1.4258534E0,-3.1611028E-1,3.723475E-1,1.3230469E0,1.4774387E0,-1.5433592E0,-1.3876365E0,-1.1557238E0,1.1667448E0,-1.0610565E0,1.1882124E0,3.1054118E-1,-4.93402E-1,7.2764003E-1,-1.3397658E0,-6.872989E-1,1.9624306E0,-1.0954435E0,-3.7112388E-1,1.3062714E0,-2.012362E0,-1.2429934E0,-3.5825828E-1,-2.5686761E-2,8.0398816E-1,1.0861247E0,5.9877044E-1,1.4261924E0,-2.1250024E0,-9.6079516E-1,2.3750894E-2,5.798778E-2,6.3739264E-1,5.7848775E-1,1.3312097E0,-7.631329E-1,1.4783295E0,-4.6333754E-1,6.69171E-2,-2.4540584E-1,-4.2533016E-1,-2.5566816E-1,-3.7190598E-1,4.4467885E-2,3.9735773E-1,-2.128247E-3,-3.3040082E-1,-7.813746E-1,3.6844411E-1,2.1391015E-1,-2.2139789E-1,-1.6838683E-1,3.835006E-1,9.613487E-2,3.0781746E-1,-4.4463518E-1,3.9933842E-1,-1.0537057E-1,-2.740189E-1,6.2188613E-1,-5.545321E-1,-2.861619E-1,-4.638625E-1,-1.3200888E-1,4.0996072E-1,4.0303153E-1,1.5557256E-1,-7.232798E-1,-5.3325576E-1,-4.508443E-2,-4.2408744E-1,-1.12138735E-2,-4.7205025E-1,9.636281E-2,-1.5959802E-1,-2.5703904E-1,2.833895E-1,-3.985112E-2,3.3629212E-1,-5.5155255E-2,2.9256147E-1,4.299737E-1,3.792533E-1,-8.066571E-1,-4.562073E-1,-3.9710814E-1,-2.2029254E-1,3.1154064E-2,-3.4218916E-1,8.147815E-2,-1.962639E-1,-2.1847542E-1,2.0675525E-1,4.6979842E-1,3.667072E-2,3.9257857E-1,4.4760343E-1,-7.606974E-1,4.437285E-1],"categories":[],"categories_nodes":[],"categories_segments":[],"categories_sizes":[],"default_left":[0,0,0,0,0,0,0,0,0,0,0,0,0,0,0,0,0,0,0,0,0,0,0,0,0,0,0,0,0,0,0,0,0,0,0,0,0,0,0,0,0,0,0,0,0,0,0,0,0,0,0,0,0,0,0,0,0,0,0,0,0,0,0,0,0,0,0,0,0,0,0,0,0,0,0,0,0,0,0,0,0,0,0,0,0,0,0,0,0,0,0,0,0,0,0,0,0,0,0,0,0,0,0,0,0,0,0,0,0,0,0,0,0,0,0,0,0,0,0,0,0,0,0,0,0],"id":1,"left_children":[1,3,5,7,9,11,13,15,17,19,21,23,25,27,29,31,33,35,37,39,41,43,45,47,49,51,53,55,57,59,61,63,65,67,69,71,73,75,77,79,81,83,85,87,89,91,93,95,97,99,101,103,105,107,109,111,113,115,117,119,121,-1,123,-1,-1,-1,-1,-1,-1,-1,-1,-1,-1,-1,-1,-1,-1,-1,-1,-1,-1,-1,-1,-1,-1,-1,-1,-1,-1,-1,-1,-1,-1,-1,-1,-1,-1,-1,-1,-1,-1,-1,-1,-1,-1,-1,-1,-1,-1,-1,-1,-1,-1,-1,-1,-1,-1,-1,-1,-1,-1,-1,-1,-1,-1],"loss_changes":[1.1573396E7,1.793466E6,1.269374E6,6.296205E5,4.2080544E5,3.354415E5,4.3302775E5,1.285225E5,4.0325325E5,1.5906697E5,1.0496003E5,9.540352E4,1.93293E5,3.6138647E5,1.6826875E3,8.02425E3,9.238625E4,1.08150875E5,1.7685489E5,9.8419625E4,8.87984E3,6.92222E4,2.4319258E3,1.78705E4,2.1063137E4,2.404495E5,1.25675E3,2.2553794E5,2.450046E5,1.4628438E3,3.6204688E2,2.0565E3,8.262E3,8.1266E4,2.7672246E3,5.8435125E4,3.292166E3,1.645977E5,1.1029297E5,1.035115E5,9.000094E3,7.5756953E3,5.4339795E2,1.1965875E4,5.3296754E4,9.166328E2,1.6544128E1,1.2256914E4,1.3640229E4,1.1043114E4,1.3924363E4,1.575315E5,4.102401E5,1.188E3,2.992569E1,2.92045E4,6.2862176E4,2.0463597E5,1.12841875E5,1.1772837E3,8.6434375E2,0E0,3.1101562E2,0E0,0E0,0E0,0E0,0E0,0E0,0E0,0E0,0E0,0E0,0E0,0E0,0E0,0E0,0E0,0E0,0E0,0E0,0E0,0E0,0E0,0E0,0E0,0E0,0E0,0E0,0E0,0E0,0E0,0E0,0E0,0E0,0E0,0E0,0E0,0E0,0E0,0E0,0E0,0E0,0E0,0E0,0E0,0E0,0E0,0E0,0E0,0E0,0E0,0E0,0E0,0E0,0E0,0E0,0E0,0E0,0E0,0E0,0E0,0E0,0E0,0E0],"parents":[2147483647,0,0,1,1,2,2,3,3,4,4,5,5,6,6,7,7,8,8,9,9,10,10,11,11,12,12,13,13,14,14,15,15,16,16,17,17,18,18,19,19,20,20,21,21,22,22,23,23,24,24,25,25,26,26,27,27,28,28,29,29,30,30,31,31,32,32,33,33,34,34,35,35,36,36,37,37,38,38,39,39,40,40,41,41,42,42,43,43,44,44,45,45,46,46,47,47,48,48,49,49,50,50,51,51,52,52,53,53,54,54,55,55,56,56,57,57,58,58,59,59,60,60,62,62],"right_children":[2,4,6,8,10,12,14,16,18,20,22,24,26,28,30,32,34,36,38,40,42,44,46,48,50,52,54,56,58,60,62,64,66,68,70,72,74,76,78,80,82,84,86,88,90,92,94,96,98,100,102,104,106,108,110,112,114,116,118,120,122,-1,124,-1,-1,-1,-1,-1,-1,-1,-1,-1,-1,-1,-1,-1,-1,-1,-1,-1,-1,-1,-1,-1,-1,-1,-1,-1,-1,-1,-1,-1,-1,-1,-1,-1,-1,-1,-1,-1,-1,-1,-1,-1,-1,-1,-1,-1,-1,-1,-1,-1,-1,-1,-1,-1,-1,-1,-1,-1,-1,-1,-1,-1,-1],"split_conditions":[9.281111E-1,8.4061843E-1,7.369147E-1,6.4503247E-1,7.952E1,-2.553533E-1,1E0,3.7742066E-1,1.8825445E1,2.8256776E0,1E0,1.0256099E0,1E0,-6.963762E-1,2E0,3.2242596E-1,1E0,1E0,-8.498171E-1,1.1580043E3,1E0,4.9895397E-1,3.8963044E-1,4.8023195E0,1.3481609E0,4.0000922E2,2.9428831E1,6.404956E0,3.79487E0,6.6178314E1,6.635217E-1,1E0,3.8557782E0,9.228989E0,4.864507E-1,6.9160484E1,5.597794E-1,4.51041E2,1E0,5.2844745E2,1E0,3.311248E0,2.3057734E1,2.8076375E0,1E0,8.5001305E1,8.717063E-1,1.3138019E1,7.146734E-1,1.9241167E2,4.393719E1,-3.4964746E-1,1.9941942E1,2.9093124E1,3.3902046E1,6.0333543E0,6.927104E2,4.196342E2,6E0,4.8616247E0,1E0,-7.631329E-1,-7.027553E-1,-4.6333754E-1,6.69171E-2,-2.4540584E-1,-4.2533016E-1,-2.5566816E-1,-3.7190598E-1,4.4467885E-2,3.9735773E-1,-2.128247E-3,-3.3040082E-1,-7.813746E-1,3.6844411E-1,2.1391015E-1,-2.2139789E-1,-1.6838683E-1,3.835006E-1,9.613487E-2,3.0781746E-1,-4.4463518E-1,3.9933842E-1,-1.0537057E-1,-2.740189E-1,6.2188613E-1,-5.545321E-1,-2.861619E-1,-4.638625E-1,-1.3200888E-1,4.0996072E-1,4.0303153E-1,1.5557256E-1,-7.232798E-1,-5.3325576E-1,-4.508443E-2,-4.2408744E-1,-1.12138735E-2,-4.7205025E-1,9.636281E-2,-1.5959802E-1,-2.5703904E-1,2.833895E-1,-3.985112E-2,3.3629212E-1,-5.5155255E-2,2.9256147E-1,4.299737E-1,3.792533E-1,-8.066571E-1,-4.562073E-1,-3.9710814E-1,-2.2029254E-1,3.1154064E-2,-3.4218916E-1,8.147815E-2,-1.962639E-1,-2.1847542E-1,2.0675525E-1,4.6979842E-1,3.667072E-2,3.9257857E-1,4.4760343E-1,-7.606974E-1,4.437285E-1],"split_indices":[4,21,3,4,1,21,24,4,16,2,24,8,24,22,24,4,25,24,21,15,14,4,22,18,8,15,18,17,18,15,2,24,3,3,4,1,8,15,24,15,24,2,0,2,26,1,21,5,22,15,15,22,16,0,17,16,15,15,23,15,13,0,19,0,0,0,0,0,0,0,0,0,0,0,0,0,0,0,0,0,0,0,0,0,0,0,0,0,0,0,0,0,0,0,0,0,0,0,0,0,0,0,0,0,0,0,0,0,0,0,0,0,0,0,0,0,0,0,0,0,0,0,0,0,0],"split_type":[0,0,0,0,0,0,0,0,0,0,0,0,0,0,0,0,0,0,0,0,0,0,0,0,0,0,0,0,0,0,0,0,0,0,0,0,0,0,0,0,0,0,0,0,0,0,0,0,0,0,0,0,0,0,0,0,0,0,0,0,0,0,0,0,0,0,0,0,0,0,0,0,0,0,0,0,0,0,0,0,0,0,0,0,0,0,0,0,0,0,0,0,0,0,0,0,0,0,0,0,0,0,0,0,0,0,0,0,0,0,0,0,0,0,0,0,0,0,0,0,0,0,0,0,0],"sum_hessian":[1.9768962E7,9.092773E6,1.0676189E7,7.452063E6,1.6407105E6,6.365428E6,4.3107615E6,4.7468985E6,2.7051642E6,9.7650794E5,6.6420256E5,2.2319889E5,6.142229E6,3.969909E6,3.4085247E5,1.5405444E6,3.2063542E6,1.3981788E6,1.3069855E6,8.755224E5,1.0098557E5,6.326486E5,3.1553885E4,1.00717086E5,1.2248181E5,5.1008875E6,1.0413414E6,1.0293667E6,2.9405422E6,2.4083062E5,1.00021836E5,1.0590919E6,4.8145247E5,3.1891345E6,1.7219746E4,1.3764652E6,2.1713477E4,3.900145E5,9.16971E5,8.5185694E5,2.366546E4,9.9705516E4,1.2800535E3,1.8753089E5,4.4511775E5,3.133235E4,2.2153517E2,6.573809E4,3.497899E4,6.287312E4,5.9608695E4,3.7083828E6,1.3925046E6,1.04124256E6,9.8824615E1,3.5533244E5,6.7403425E5,1.3451334E6,1.5954089E6,2.6124048E3,2.3821823E5,2.1520134E1,1.0000031E5,1.0584334E6,6.585079E2,2.4189014E4,4.5726347E5,6.910908E5,2.4980438E6,2.310001E3,1.4909745E4,5.0668293E4,1.325797E6,2.2557199E2,2.1487904E4,2.8183066E5,1.0818382E5,8.8313275E5,3.3838215E4,3.602708E5,4.9158612E5,2.24684E4,1.1970604E3,4.0101926E4,5.960359E4,1.2444188E3,3.563468E1,1.4271262E5,4.481828E4,4.2814088E5,1.6976889E4,2.991989E4,1.4124578E3,7.8700386E1,1.4283478E2,8.879061E3,5.685903E4,2.7673082E4,7.305908E3,3.7310316E4,2.5562807E4,4.6534526E3,5.4955242E4,1.0307251E5,3.6053102E6,4.5225344E5,9.4025125E5,9.977968E5,4.3445746E4,4.933915E1,4.948547E1,1.3654395E5,2.1878848E5,6.306535E5,4.338076E4,1.034779E6,3.1035434E5,5.8293934E4,1.5371149E6,8.247951E2,1.7876097E3,2.088549E5,2.936332E4,1.843492E1,9.998188E4],"tree_param":{"num_deleted":"0","num_feature":"30","num_nodes":"125","size_leaf_vector":"1"}},{"base_weights":[-1.2742819E-3,-8.419626E-1,4.1864258E-1,-1.1490064E0,-6.2896556E-1,7.524365E-1,4.3630715E-2,-1.2957691E0,-1.0291065E0,-6.7321885E-1,1.1609893E0,4.934052E-1,9.3106854E-1,-2.97268E-1,5.315454E-1,-1.2974614E0,1.7813879E0,-6.3937974E-1,-1.0888779E0,-8.241733E-1,-2.4937999E-1,7.9749537E-1,1.239087E0,-1.7392454E-1,6.607867E-1,1.0068944E0,1.2711227E-1,-7.142284E-1,1.33105125E-2,4.1797158E-1,1.236355E0,-1.338693E0,-1.2116246E0,1.1492556E0,3.4651687E0,-4.6343356E-1,-1.1185151E0,-1.093888E0,2.8875551E0,-4.5127818E-1,-9.797572E-1,-3.040202E-1,1.2395391E0,8.403181E-1,-2.3735962E0,1.2471412E0,-2.3229141E0,-7.830047E-2,-8.197235E-1,-1.661269E0,6.77664E-1,-6.373558E-1,1.0297414E0,-8.9203507E-1,3.294628E-1,-9.8203945E-1,-4.6439475E-1,-1.2909591E0,7.8170545E-2,3.3699307E-1,1.3214539E0,1.2602794E0,9.9004513E-1,-4.0199152E-1,3.473624E-2,-3.6933482E-1,-1.4922167E-1,-4.9433622E-1,4.3390304E-1,-3.5882038E-1,1.0888084E0,-4.2212054E-1,-1.1401926E-1,-3.4486172E-1,9.594156E-1,-2.8303275E-1,-3.6452144E-1,-4.547152E-1,9.233071E-1,-2.9063377E-1,-3.8068794E-2,-3.312179E-1,-1.974922E-1,-1.0422968E-1,3.4066352E-1,3.7878376E-1,-6.101167E-1,2.974963E-1,7.6572243E-3,-6.362213E-1,-9.158577E-1,3.7578282E-1,-8.876461E-1,-6.392428E-1,-9.344247E-1,-2.525696E-1,7.577065E-3,-2.9188922E-1,-7.934474E-2,-5.808017E-1,-2.9472542E-1,1.8586068E-1,3.8165146E-1,-3.165385E-1,2.9007992E-1,-3.298522E-2,3.1357285E-1,-1.7962465E-1,-3.8310662E-1,-9.3034774E-2,1.8379956E-1,-3.4714633E-1,-2.1230535E-1,-2.9093993E-1,-7.4697785E-2,-3.0394164E-1,-4.806761E-1,1.9734008E-3,3.44104E-1,8.200411E-2,3.7379476E-1,3.477475E-1,4.154732E-1,3.7832582E-1,-7.908135E-1,2.9902846E-1,-8.36687E-1],"categories":[],"categories_nodes":[],"categories_segments":[],"categories_sizes":[],"default_left":[0,0,0,0,0,0,0,0,0,0,0,0,0,0,0,0,0,0,0,0,0,0,0,0,0,0,0,0,0,0,0,0,0,0,0,0,0,0,0,0,0,0,0,0,0,0,0,0,0,0,0,0,0,0,0,0,0,0,0,0,0,0,0,0,0,0,0,0,0,0,0,0,0,0,0,0,0,0,0,0,0,0,0,0,0,0,0,0,0,0,0,0,0,0,0,0,0,0,0,0,0,0,0,0,0,0,0,0,0,0,0,0,0,0,0,0,0,0,0,0,0,0,0,0,0,0,0],"id":2,"left_children":[1,3,5,7,9,11,13,15,17,19,21,23,25,27,29,31,33,35,37,39,41,43,45,47,49,51,53,55,57,59,61,63,65,67,69,71,73,75,77,79,81,83,85,87,89,91,93,95,97,99,101,103,105,107,109,111,113,115,117,119,121,123,125,-1,-1,-1,-1,-1,-1,-1,-1,-1,-1,-1,-1,-1,-1,-1,-1,-1,-1,-1,-1,-1,-1,-1,-1,-1,-1,-1,-1,-1,-1,-1,-1,-1,-1,-1,-1,-1,-1,-1,-1,-1,-1,-1,-1,-1,-1,-1,-1,-1,-1,-1,-1,-1,-1,-1,-1,-1,-1,-1,-1,-1,-1,-1,-1],"loss_changes":[6.46949E6,3.992355E5,1.529858E6,4.399575E4,2.8550125E5,2.99196E5,9.573004E5,5.856875E3,3.2054625E4,2.250395E5,2.467625E3,2.9479012E5,2.3329575E5,4.3876538E5,1.8949438E5,3.974875E3,6.54192E2,1.5425602E4,2.3772875E4,1.504705E5,7.51507E4,2.0907969E3,2.0564375E3,3.268138E4,8.268956E4,1.313755E5,6.802117E4,9.6774E4,1.6426678E5,1.4915956E5,1.9346875E3,1.41175E3,5.0750625E3,3.7721625E2,1.331388E2,1.0528715E4,6.5852695E3,2.1723625E4,1.261875E3,1.2817622E5,7.312225E4,5.5685305E4,2.4721836E3,1.8715215E3,2.8772705E1,1.6462344E3,1.7980713E1,3.645147E4,5.807289E3,2.8376797E3,7.2387875E4,3.2123662E4,6.093725E4,6.1687695E3,4.9846977E4,3.3537E4,8.146431E4,7.954E3,1.4154988E5,1.0824636E5,1.7254688E3,9.44375E2,7.411133E2,0E0,0E0,0E0,0E0,0E0,0E0,0E0,0E0,0E0,0E0,0E0,0E0,0E0,0E0,0E0,0E0,0E0,0E0,0E0,0E0,0E0,0E0,0E0,0E0,0E0,0E0,0E0,0E0,0E0,0E0,0E0,0E0,0E0,0E0,0E0,0E0,0E0,0E0,0E0,0E0,0E0,0E0,0E0,0E0,0E0,0E0,0E0,0E0,0E0,0E0,0E0,0E0,0E0,0E0,0E0,0E0,0E0,0E0,0E0,0E0,0E0,0E0,0E0,0E0],"parents":[2147483647,0,0,1,1,2,2,3,3,4,4,5,5,6,6,7,7,8,8,9,9,10,10,11,11,12,12,13,13,14,14,15,15,16,16,17,17,18,18,19,19,20,20,21,21,22,22,23,23,24,24,25,25,26,26,27,27,28,28,29,29,30,30,31,31,32,32,33,33,34,34,35,35,36,36,37,37,38,38,39,39,40,40,41,41,42,42,43,43,44,44,45,45,46,46,47,47,48,48,49,49,50,50,51,51,52,52,53,53,54,54,55,55,56,56,57,57,58,58,59,59,60,60,61,61,62,62],"right_children":[2,4,6,8,10,12,14,16,18,20,22,24,26,28,30,32,34,36,38,40,42,44,46,48,50,52,54,56,58,60,62,64,66,68,70,72,74,76,78,80,82,84,86,88,90,92,94,96,98,100,102,104,106,108,110,112,114,116,118,120,122,124,126,-1,-1,-1,-1,-1,-1,-1,-1,-1,-1,-1,-1,-1,-1,-1,-1,-1,-1,-1,-1,-1,-1,-1,-1,-1,-1,-1,-1,-1,-1,-1,-1,-1,-1,-1,-1,-1,-1,-1,-1,-1,-1,-1,-1,-1,-1,-1,-1,-1,-1,-1,-1,-1,-1,-1,-1,-1,-1,-1,-1,-1,-1,-1,-1],"split_conditions":[7.513887E-1,4.8036888E-1,6.6895546E1,3.4960648E-1,1E0,4.2110088E-1,8.3592546E-1,1E0,7.129123E2,6.4862955E-1,8.831906E0,3.4001706E0,4.0432205E2,6.404956E0,1E0,2.9668465E-1,3.410912E-1,3.221306E0,1E0,-8.9198136E-1,1E0,1.5981311E3,9.291414E-1,4.4795493E2,4E0,-5.4524046E-1,4.0583096E0,-6.1729527E1,6E0,1E0,1.113274E0,1E0,9.813065E-1,1.01777285E-1,1.616247E3,4.5250745E0,1E0,1.5995685E0,-4.2023286E-2,1.4561116E1,2.3867276E-1,1E0,1.3394424E0,4.520722E-1,6.5590346E-1,2.607565E1,6.4503247E-1,8.013611E-1,4.4988947E0,1.7439674E-1,1E0,1.5166084E0,8.745499E-1,-5.7090465E-2,2.8461337E0,2.3024416E0,-1.5430883E-1,2.1765217E1,1E0,1E0,5.196239E2,2.9903894E1,2.0354086E2,-4.0199152E-1,3.473624E-2,-3.6933482E-1,-1.4922167E-1,-4.9433622E-1,4.3390304E-1,-3.5882038E-1,1.0888084E0,-4.2212054E-1,-1.1401926E-1,-3.4486172E-1,9.594156E-1,-2.8303275E-1,-3.6452144E-1,-4.547152E-1,9.233071E-1,-2.9063377E-1,-3.8068794E-2,-3.312179E-1,-1.974922E-1,-1.0422968E-1,3.4066352E-1,3.7878376E-1,-6.101167E-1,2.974963E-1,7.6572243E-3,-6.362213E-1,-9.158577E-1,3.7578282E-1,-8.876461E-1,-6.392428E-1,-9.344247E-1,-2.525696E-1,7.577065E-3,-2.9188922E-1,-7.934474E-2,-5.808017E-1,-2.9472542E-1,1.8586068E-1,3.8165146E-1,-3.165385E-1,2.9007992E-1,-3.298522E-2,3.1357285E-1,-1.7962465E-1,-3.8310662E-1,-9.3034774E-2,1.8379956E-1,-3.4714633E-1,-2.1230535E-1,-2.9093993E-1,-7.4697785E-2,-3.0394164E-1,-4.806761E-1,1.9734008E-3,3.44104E-1,8.200411E-2,3.7379476E-1,3.477475E-1,4.154732E-1,3.7832582E-1,-7.908135E-1,2.9902846E-1,-8.36687E-1],"split_indices":[4,4,1,4,24,22,21,13,6,21,17,17,15,17,24,4,4,2,13,21,25,5,22,15,23,21,17,10,23,25,8,24,21,19,5,16,13,2,20,16,21,26,7,22,4,17,4,21,12,19,25,8,8,19,12,18,21,17,24,26,15,17,3,0,0,0,0,0,0,0,0,0,0,0,0,0,0,0,0,0,0,0,0,0,0,0,0,0,0,0,0,0,0,0,0,0,0,0,0,0,0,0,0,0,0,0,0,0,0,0,0,0,0,0,0,0,0,0,0,0,0,0,0,0,0,0,0],"split_type":[0,0,0,0,0,0,0,0,0,0,0,0,0,0,0,0,0,0,0,0,0,0,0,0,0,0,0,0,0,0,0,0,0,0,0,0,0,0,0,0,0,0,0,0,0,0,0,0,0,0,0,0,0,0,0,0,0,0,0,0,0,0,0,0,0,0,0,0,0,0,0,0,0,0,0,0,0,0,0,0,0,0,0,0,0,0,0,0,0,0,0,0,0,0,0,0,0,0,0,0,0,0,0,0,0,0,0,0,0,0,0,0,0,0,0,0,0,0,0,0,0,0,0,0,0,0,0],"sum_hessian":[1.832617E7,6.1045815E6,1.2221588E7,2.5002978E6,3.6042835E6,6.4661435E6,5.755444E6,1.124208E6,1.3760899E6,3.517325E6,8.695866E4,2.639154E6,3.8269895E6,3.3881762E6,2.367268E6,1.1235906E6,6.1736884E2,1.8298528E5,1.1931046E6,2.5935908E6,9.2373425E5,1.5381061E4,7.15776E4,5.292195E5,2.1099345E6,3.4971522E6,3.2983716E5,1.4463754E6,1.9418009E6,2.038744E6,3.2852397E5,7.5899444E5,3.645962E5,4.500803E2,1.6728853E2,1.3383931E5,4.9145973E4,1.1916039E6,1.5006537E3,7.635527E5,1.830038E6,8.9103594E5,3.269835E4,1.5176846E4,2.0421436E2,7.1416766E4,1.6083542E2,4.609651E5,6.825441E4,1.5224189E4,2.0947102E6,4.7926945E4,3.4492255E6,5.46395E4,2.7519766E5,6.980705E5,7.483049E5,9.198839E4,1.8498125E6,1.8710449E6,1.676991E5,2.994352E5,2.9088785E4,7.583279E5,6.6656085E2,3.5490975E5,9.686445E3,4.277861E1,4.0730167E2,5.478405E0,1.6181012E2,1.0863418E4,1.2297589E5,4.8796E4,3.4997043E2,5.3162075E5,6.599832E5,6.1828075E1,1.4388256E3,2.9420022E5,4.6935244E5,1.3197118E6,5.1032628E5,8.649529E5,2.608308E4,3.247008E4,2.2826828E2,1.2799338E4,2.3775078E3,1.5182057E2,5.2393787E1,7.1324734E4,9.202661E1,1.3240419E2,2.843123E1,5.5048473E4,4.059166E5,5.349078E4,1.4763626E4,1.0836653E4,4.387536E3,1.9081422E6,1.86568E5,3.8025164E4,9.901783E3,4.6284848E4,3.4029405E6,3.1014754E4,2.3624744E4,8.445839E4,1.9073927E5,4.26098E5,2.719725E5,2.2361839E5,5.246865E5,4.8609887E4,4.3378508E4,1.7336886E6,1.1612382E5,1.7486111E6,1.2243378E5,4.714392E4,1.2055517E5,2.9937388E5,6.1298294E1,2.9037912E4,5.08725E1],"tree_param":{"num_deleted":"0","num_feature":"30","num_nodes":"127","size_leaf_vector":"1"}},{"base_weights":[-2.2209035E-3,-4.7882068E-1,4.647333E-1,-6.910829E-1,2.066266E-2,6.708391E-1,2.152335E-1,-8.2004756E-1,-1.8785208E-1,-4.3940458E-1,2.2648002E-1,5.9579235E-1,1.0880702E0,1.6132596E-1,1.083729E0,-8.372436E-1,1.009311E0,-6.11984E-1,1.9655396E-1,-9.1151035E-1,-3.0526435E-1,1.3649265E-1,1.0835037E0,1.9699848E-1,6.8455833E-1,1.0884558E0,-4.668049E0,1.10607445E-1,9.641564E-1,1.2143652E0,9.851863E-1,-1.1557032E0,-7.517748E-1,1.0301877E0,-7.4048716E-1,-8.6401826E-1,-3.6737248E-1,-1.4331217E-1,8.5828495E-1,-1.2080328E0,-7.135566E-1,-2.0632654E-1,-1.0436845E0,-2.396275E-1,2.9577115E-1,1.0868999E0,-2.839429E0,-2.6024112E-1,5.474102E-1,5.368007E-1,8.9347804E-1,1.0703202E0,1.1819458E0,-5.400464E-1,-1.428351E0,7.126603E-2,9.6452886E-1,9.079827E-1,1.1094157E0,-2.8381677E0,1.2168791E0,-2.1019726E0,9.9037415E-1,-2.6703152E-1,-3.5624748E-1,-1.7329025E-1,-2.8302687E-1,3.8639146E-1,2.695023E-1,-5.1876354E-1,3.0927044E-1,-2.6228118E-1,7.2282803E-1,-5.0832238E-2,-2.9006246E-1,-1.5185481E-1,1.6693263E-1,3.7863186E-1,7.078748E-2,-3.6881083E-1,1.3368526E-1,-2.937016E-1,-1.4486733E-1,-3.2425297E-3,-1.79885E-1,-3.8055992E-1,-2.6126358E-1,5.6462426E-2,-2.3676805E-1,-2.3246096E-2,1.5524852E-1,-1.1490774E0,3.2680094E-1,-7.128798E-1,-1.0857778E0,-1.8139827E-1,4.5392998E-2,2.0919858E-1,-2.6008798E-2,5.351565E-2,2.0095006E-1,2.901075E-1,1.9481567E-1,-2.7995202E-1,3.2139945E-1,3.5469887E-1,-1.2433938E0,-2.2827263E-1,3.1159969E-2,2.9104257E-1,-7.142667E-1,-2.7005082E-2,2.744708E-1,3.337648E-1,-1.2512009E0,-5.719619E-1,-9.214584E-1,3.519101E-1,4.3230724E-1,-5.587877E-1,-7.642701E-1,2.9915553E-1,-2.6064524E-1],"categories":[],"categories_nodes":[],"categories_segments":[],"categories_sizes":[],"default_left":[0,0,0,0,0,0,0,0,0,0,0,0,0,0,0,0,0,0,0,0,0,0,0,0,0,0,0,0,0,0,0,0,0,0,0,0,0,0,0,0,0,0,0,0,0,0,0,0,0,0,0,0,0,0,0,0,0,0,0,0,0,0,0,0,0,0,0,0,0,0,0,0,0,0,0,0,0,0,0,0,0,0,0,0,0,0,0,0,0,0,0,0,0,0,0,0,0,0,0,0,0,0,0,0,0,0,0,0,0,0,0,0,0,0,0,0,0,0,0,0,0,0,0],"id":3,"left_children":[1,3,5,7,9,11,13,15,17,19,21,23,25,27,29,31,33,35,37,39,41,43,45,47,49,51,53,55,57,59,61,63,65,67,69,71,73,75,77,79,81,83,85,87,89,91,93,95,97,99,101,103,105,-1,-1,107,109,111,113,115,117,119,121,-1,-1,-1,-1,-1,-1,-1,-1,-1,-1,-1,-1,-1,-1,-1,-1,-1,-1,-1,-1,-1,-1,-1,-1,-1,-1,-1,-1,-1,-1,-1,-1,-1,-1,-1,-1,-1,-1,-1,-1,-1,-1,-1,-1,-1,-1,-1,-1,-1,-1,-1,-1,-1,-1,-1,-1,-1,-1,-1,-1],"loss_changes":[3.7531755E6,8.848549E5,4.3804425E5,3.8011275E5,2.3568388E5,1.46065E5,1.8041628E5,1.46663E5,1.9479856E5,4.871978E4,1.3262419E5,1.3995875E5,1.583875E3,1.4773938E5,2.898E3,1.257145E5,1.5867969E3,3.5020047E4,1.4095648E5,9.990844E3,4.3768832E4,9.323332E4,2.1801719E3,1.1533149E5,9.982825E4,1.204375E3,4.204712E0,1.1464872E5,1.7582031E3,9.899531E2,2.058164E3,8.250375E3,1.2152925E5,1.4571211E3,8.993525E2,9.391547E3,3.420612E4,1.0514366E5,5.344608E4,2.404875E3,6.249871E3,4.06251E4,2.7493125E3,1.088657E5,9.048122E4,1.9602812E3,4.2551025E1,4.4268344E4,3.8740297E4,9.031819E4,2.4049625E4,1.2078125E3,2.4104688E2,0E0,0E0,8.8507484E4,2.8247344E3,1.0738281E3,9.993906E2,7.260193E0,9.493594E2,1.8258911E1,1.6238047E3,0E0,0E0,0E0,0E0,0E0,0E0,0E0,0E0,0E0,0E0,0E0,0E0,0E0,0E0,0E0,0E0,0E0,0E0,0E0,0E0,0E0,0E0,0E0,0E0,0E0,0E0,0E0,0E0,0E0,0E0,0E0,0E0,0E0,0E0,0E0,0E0,0E0,0E0,0E0,0E0,0E0,0E0,0E0,0E0,0E0,0E0,0E0,0E0,0E0,0E0,0E0,0E0,0E0,0E0,0E0,0E0,0E0,0E0,0E0,0E0],"parents":[2147483647,0,0,1,1,2,2,3,3,4,4,5,5,6,6,7,7,8,8,9,9,10,10,11,11,12,12,13,13,14,14,15,15,16,16,17,17,18,18,19,19,20,20,21,21,22,22,23,23,24,24,25,25,26,26,27,27,28,28,29,29,30,30,31,31,32,32,33,33,34,34,35,35,36,36,37,37,38,38,39,39,40,40,41,41,42,42,43,43,44,44,45,45,46,46,47,47,48,48,49,49,50,50,51,51,52,52,55,55,56,56,57,57,58,58,59,59,60,60,61,61,62,62],"right_children":[2,4,6,8,10,12,14,16,18,20,22,24,26,28,30,32,34,36,38,40,42,44,46,48,50,52,54,56,58,60,62,64,66,68,70,72,74,76,78,80,82,84,86,88,90,92,94,96,98,100,102,104,106,-1,-1,108,110,112,114,116,118,120,122,-1,-1,-1,-1,-1,-1,-1,-1,-1,-1,-1,-1,-1,-1,-1,-1,-1,-1,-1,-1,-1,-1,-1,-1,-1,-1,-1,-1,-1,-1,-1,-1,-1,-1,-1,-1,-1,-1,-1,-1,-1,-1,-1,-1,-1,-1,-1,-1,-1,-1,-1,-1,-1,-1,-1,-1,-1,-1,-1,-1],"split_conditions":[9.956989E-1,6.616346E-1,4.08603E-1,8.3144194E-1,6.5916866E-1,1E0,1E0,1E0,-6.963762E-1,4.4211495E-1,1E0,1.0039573E0,7.483402E1,1E0,1.0878332E0,3.735923E-1,8.818453E1,7.69229E0,2.685759E1,4.642938E-1,3.311248E0,3.9094703E0,1.5038004E0,8.3592546E-1,7.498264E-1,1E0,8.6426735E-4,1E0,2E0,7.17407E-1,4.393719E1,2.5173409E1,2.0310879E0,-9.796137E-1,1E0,1E0,2.3994536E0,1.2874818E-1,-9.278235E1,1.879E3,4.4319852E2,2.4466623E1,5.4988915E-1,4.127915E2,4.8621756E2,-7.206671E-1,8.9180654E-1,9.1481805E-1,3.253421E-1,3.4001706E0,6.1662052E1,5E0,9.998518E-1,-5.400464E-1,-1.428351E0,4.393719E1,1.835143E1,4.966143E1,8.88215E1,-6.839194E-1,3.1666582E1,1.7997465E1,2.320187E0,-2.6703152E-1,-3.5624748E-1,-1.7329025E-1,-2.8302687E-1,3.8639146E-1,2.695023E-1,-5.1876354E-1,3.0927044E-1,-2.6228118E-1,7.2282803E-1,-5.0832238E-2,-2.9006246E-1,-1.5185481E-1,1.6693263E-1,3.7863186E-1,7.078748E-2,-3.6881083E-1,1.3368526E-1,-2.937016E-1,-1.4486733E-1,-3.2425297E-3,-1.79885E-1,-3.8055992E-1,-2.6126358E-1,5.6462426E-2,-2.3676805E-1,-2.3246096E-2,1.5524852E-1,-1.1490774E0,3.2680094E-1,-7.128798E-1,-1.0857778E0,-1.8139827E-1,4.5392998E-2,2.0919858E-1,-2.6008798E-2,5.351565E-2,2.0095006E-1,2.901075E-1,1.9481567E-1,-2.7995202E-1,3.2139945E-1,3.5469887E-1,-1.2433938E0,-2.2827263E-1,3.1159969E-2,2.9104257E-1,-7.142667E-1,-2.7005082E-2,2.744708E-1,3.337648E-1,-1.2512009E0,-5.719619E-1,-9.214584E-1,3.519101E-1,4.3230724E-1,-5.587877E-1,-7.642701E-1,2.9915553E-1,-2.6064524E-1],"split_indices":[4,21,3,8,4,24,25,24,22,4,24,8,1,24,8,4,1,17,0,7,2,18,7,21,22,13,3,26,24,12,15,3,2,21,13,13,2,21,10,11,15,0,4,15,15,22,4,8,22,17,1,23,22,0,0,15,18,15,3,22,3,16,8,0,0,0,0,0,0,0,0,0,0,0,0,0,0,0,0,0,0,0,0,0,0,0,0,0,0,0,0,0,0,0,0,0,0,0,0,0,0,0,0,0,0,0,0,0,0,0,0,0,0,0,0,0,0,0,0,0,0,0,0],"split_type":[0,0,0,0,0,0,0,0,0,0,0,0,0,0,0,0,0,0,0,0,0,0,0,0,0,0,0,0,0,0,0,0,0,0,0,0,0,0,0,0,0,0,0,0,0,0,0,0,0,0,0,0,0,0,0,0,0,0,0,0,0,0,0,0,0,0,0,0,0,0,0,0,0,0,0,0,0,0,0,0,0,0,0,0,0,0,0,0,0,0,0,0,0,0,0,0,0,0,0,0,0,0,0,0,0,0,0,0,0,0,0,0,0,0,0,0,0,0,0,0,0,0,0],"sum_hessian":[1.6864392E7,8.345997E6,8.518395E6,5.8569895E6,2.4890075E6,4.664863E6,3.8535322E6,4.662193E6,1.1947965E6,7.6932356E5,1.719684E6,3.9537165E6,7.1114625E5,3.6283235E6,2.2520894E5,4.618777E6,4.3416215E4,5.68046E5,6.267505E5,1.7022206E5,5.991015E5,1.5562764E6,1.6340762E5,7.1982075E5,3.2338958E6,7.1109944E5,4.683753E1,3.4127268E6,2.1559666E5,9.683081E4,1.28378125E5,9.773025E5,3.6414745E6,4.2904734E4,5.1148257E2,2.7977684E5,2.8826916E5,4.140794E5,2.126711E5,6.8142984E4,1.0207908E5,5.2831594E5,7.078556E4,4.629845E5,1.0932918E6,1.63267E5,1.4061995E2,3.1230522E5,4.0751556E5,1.8942199E6,1.3396759E6,5.955787E5,1.1552077E5,2.11239E0,4.4725136E1,3.2624232E6,1.5030353E5,1.5547838E5,6.0118293E4,5.9330544E1,9.6771484E4,2.1469363E2,1.2816343E5,1.04469266E5,8.7283325E5,1.9078834E6,1.733591E6,1.4515525E4,2.8389207E4,3.2827515E2,1.8320743E2,2.7890406E5,8.7278375E2,2.1671862E5,7.155055E4,2.7267762E5,1.4140175E5,1.2897774E5,8.369334E4,6.727521E4,8.677757E2,4.7459586E4,5.4619496E4,3.5288544E5,1.7543053E5,3.0758035E4,4.002753E4,2.6033072E5,2.0265378E5,4.0742244E5,6.858694E5,8.008396E1,1.6318692E5,9.0761375E1,4.9858578E1,1.7001895E5,1.4228627E5,3.295918E5,7.792375E4,5.127577E5,1.3814621E6,1.0294824E6,3.1019356E5,3.0002814E2,5.952786E5,1.15513234E5,7.544356E0,1.2298685E5,3.1394362E6,1.5005248E5,2.5105382E2,1.0705461E3,1.5440783E5,6.008342E4,3.487E1,1.3721414E1,4.5609127E1,8.094409E4,1.5827395E4,1.430407E2,7.165294E1,1.2769609E5,4.6733926E2],"tree_param":{"num_deleted":"0","num_feature":"30","num_nodes":"123","size_leaf_vector":"1"}},{"base_weights":[-2.3911735E-3,-5.723983E-1,2.4337597E-1,-8.961534E-1,-4.0068552E-1,5.067327E-1,3.7629172E-2,-1.1186024E0,-7.821307E-1,-8.7221754E-1,-2.8915516E-1,2.9417023E-1,7.0292306E-1,-2.9207084E-1,2.230447E-1,-1.1215556E0,4.992297E-1,-2.3632509E-1,-8.2944345E-1,-9.3424326E-1,2.7457494E-1,-1.0656655E-1,-6.53569E-1,-4.3383077E-2,4.49061E-1,7.548773E-1,-6.0597673E-4,-6.4584786E-1,-6.8210326E-2,6.317553E-2,5.5111367E-1,-1.1267977E0,-4.485312E-1,-7.6572293E-1,1.3551052E0,-1.0549315E0,-3.191701E-2,-7.580022E-1,-1.1206152E0,-5.791459E-1,-1.0696037E0,9.5913184E-1,-4.4693837E-1,1.7854655E-2,-7.6155925E-1,-3.3935985E-1,-8.7443954E-1,1.259066E-1,-5.7087713E-1,3.8831082E-1,9.485034E-1,2.5070155E-1,8.05598E-1,-3.605554E-1,4.686963E-1,-9.167583E-1,-5.088581E-1,1.7145605E-1,-5.299507E-1,1.887655E-2,1.0923399E0,6.0346514E-1,-8.872027E-1,-3.419329E-1,-2.7373594E-1,1.3743044E0,-3.001969E-1,-5.4609823E-1,2.8880548E-1,4.5636618E-1,-5.8033824E-1,-1.9418119E-1,-3.8855377E-1,9.681374E-2,-1.7626609E-1,-3.093994E-1,-1.8259797E-1,-2.1558766E-1,-3.5864204E-1,1.2649575E-1,-2.0210433E-1,-3.2527578E-1,-1.1199867E-1,-1.7289236E-1,4.1914323E-1,-4.5622274E-2,-3.6699834E-1,-8.430244E-2,4.619856E-2,1.401217E-1,-2.6916176E-1,2.0804799E-1,-1.2460578E-1,-2.6512694E-1,8.712073E-1,-5.192719E-2,1.4892067E-1,2.6203462E-1,-2.0985803E-1,-4.068206E-1,1.21633604E-1,2.719143E-1,3.3647594E-1,1.4024623E-1,-2.1199937E-1,2.4327677E-1,-7.2241104E-1,-7.352789E-2,-4.4988292E-1,-2.4308566E-2,2.5337735E-1,-2.9803646E-1,-5.897888E-2,-2.1213274E-1,-8.698497E-2,-1.741342E-1,9.061762E-2,-1.0552599E-1,-2.5040415E-1,-3.0038592E-1,1.832984E-2,2.924948E-1,4.1107467E-1,4.968543E-2,2.4415477E-1,-3.1795526E-1,3.7795523E-1],"categories":[],"categories_nodes":[],"categories_segments":[],"categories_sizes":[],"default_left":[0,0,0,0,0,0,0,0,0,0,0,0,0,0,0,0,0,0,0,0,0,0,0,0,0,0,0,0,0,0,0,0,0,0,0,0,0,0,0,0,0,0,0,0,0,0,0,0,0,0,0,0,0,0,0,0,0,0,0,0,0,0,0,0,0,0,0,0,0,0,0,0,0,0,0,0,0,0,0,0,0,0,0,0,0,0,0,0,0,0,0,0,0,0,0,0,0,0,0,0,0,0,0,0,0,0,0,0,0,0,0,0,0,0,0,0,0,0,0,0,0,0,0,0,0,0,0],"id":4,"left_children":[1,3,5,7,9,11,13,15,17,19,21,23,25,27,29,31,33,35,37,39,41,43,45,47,49,51,53,55,57,59,61,63,65,67,69,71,73,75,77,79,81,83,85,87,89,91,93,95,97,99,101,103,105,107,109,111,113,115,117,119,121,123,125,-1,-1,-1,-1,-1,-1,-1,-1,-1,-1,-1,-1,-1,-1,-1,-1,-1,-1,-1,-1,-1,-1,-1,-1,-1,-1,-1,-1,-1,-1,-1,-1,-1,-1,-1,-1,-1,-1,-1,-1,-1,-1,-1,-1,-1,-1,-1,-1,-1,-1,-1,-1,-1,-1,-1,-1,-1,-1,-1,-1,-1,-1,-1,-1],"loss_changes":[2.1846128E6,2.6118175E5,5.9041594E5,4.12975E4,1.6144669E5,1.9930075E5,3.7395694E5,2.63675E3,2.7797562E4,4.1769812E4,1.651925E5,1.199307E5,9.0839375E4,1.7438338E5,2.053528E5,1.942625E3,1.0902106E3,1.4368467E4,2.0604938E4,2.6776625E4,1.488305E4,1.3479036E5,5.751228E4,6.4428797E4,4.770647E4,5.91825E4,2.8871285E4,3.1668469E4,1.4923745E5,1.2001894E5,9.659544E4,1.5191875E3,1.1829597E4,7.42953E2,3.3103088E2,1.6795586E3,1.3539724E4,3.2468219E4,5.8719062E3,1.4546953E4,4.1135312E3,1.0399787E4,3.3583481E3,5.655307E4,4.4003656E4,2.6849922E4,1.7133938E4,6.0506582E4,3.2572152E4,4.190008E4,1.2421406E3,4.3905258E4,3.5983E4,1.2720695E4,1.5329952E4,1.5828969E4,2.459614E4,8.717978E4,2.5021953E4,1.0871443E5,3.541836E3,1.14019625E5,1.6701766E4,0E0,0E0,0E0,0E0,0E0,0E0,0E0,0E0,0E0,0E0,0E0,0E0,0E0,0E0,0E0,0E0,0E0,0E0,0E0,0E0,0E0,0E0,0E0,0E0,0E0,0E0,0E0,0E0,0E0,0E0,0E0,0E0,0E0,0E0,0E0,0E0,0E0,0E0,0E0,0E0,0E0,0E0,0E0,0E0,0E0,0E0,0E0,0E0,0E0,0E0,0E0,0E0,0E0,0E0,0E0,0E0,0E0,0E0,0E0,0E0,0E0,0E0,0E0,0E0],"parents":[2147483647,0,0,1,1,2,2,3,3,4,4,5,5,6,6,7,7,8,8,9,9,10,10,11,11,12,12,13,13,14,14,15,15,16,16,17,17,18,18,19,19,20,20,21,21,22,22,23,23,24,24,25,25,26,26,27,27,28,28,29,29,30,30,31,31,32,32,33,33,34,34,35,35,36,36,37,37,38,38,39,39,40,40,41,41,42,42,43,43,44,44,45,45,46,46,47,47,48,48,49,49,50,50,51,51,52,52,53,53,54,54,55,55,56,56,57,57,58,58,59,59,60,60,61,61,62,62],"right_children":[2,4,6,8,10,12,14,16,18,20,22,24,26,28,30,32,34,36,38,40,42,44,46,48,50,52,54,56,58,60,62,64,66,68,70,72,74,76,78,80,82,84,86,88,90,92,94,96,98,100,102,104,106,108,110,112,114,116,118,120,122,124,126,-1,-1,-1,-1,-1,-1,-1,-1,-1,-1,-1,-1,-1,-1,-1,-1,-1,-1,-1,-1,-1,-1,-1,-1,-1,-1,-1,-1,-1,-1,-1,-1,-1,-1,-1,-1,-1,-1,-1,-1,-1,-1,-1,-1,-1,-1,-1,-1,-1,-1,-1,-1,-1,-1,-1,-1,-1,-1,-1,-1,-1,-1,-1,-1],"split_conditions":[7.384775E-1,4.6442017E-1,6.508762E1,3.124611E-1,7.08944E0,5.123714E-1,3.79487E0,1E0,4.8438983E2,2.7408655E1,2.1861498E0,3.8990986E0,4.0432205E2,-4.3392086E1,9.307239E-1,9.6439976E-1,1.97355E1,5.4407448E1,7.1148175E2,1.2634703E1,1.0238907E0,7.308676E2,4.196342E2,2.9997205E2,1E0,1.7213356E-2,4.1815267E0,7.64618E-1,4.169778E2,1E0,9.964742E2,-2.8463873E1,6.029569E-1,1E0,5.9072903E1,3.88E2,8.939186E-1,2.7808762E0,1.2172517E3,1.9125177E1,6.3034534E2,-6.839194E-1,-2.4683899E1,7.3907766E0,1.9455795E1,-9.7601056E-1,1E0,2.0365067E2,2.1514385E0,4E0,1E0,2.1081184E2,2.3602371E1,9.0881765E-1,1.9941942E1,5.086709E-1,2.0660613E0,-1.5430883E-1,5.2844745E2,6E0,7.561178E1,4.8621756E2,1E0,-3.419329E-1,-2.7373594E-1,1.3743044E0,-3.001969E-1,-5.4609823E-1,2.8880548E-1,4.5636618E-1,-5.8033824E-1,-1.9418119E-1,-3.8855377E-1,9.681374E-2,-1.7626609E-1,-3.093994E-1,-1.8259797E-1,-2.1558766E-1,-3.5864204E-1,1.2649575E-1,-2.0210433E-1,-3.2527578E-1,-1.1199867E-1,-1.7289236E-1,4.1914323E-1,-4.5622274E-2,-3.6699834E-1,-8.430244E-2,4.619856E-2,1.401217E-1,-2.6916176E-1,2.0804799E-1,-1.2460578E-1,-2.6512694E-1,8.712073E-1,-5.192719E-2,1.4892067E-1,2.6203462E-1,-2.0985803E-1,-4.068206E-1,1.21633604E-1,2.719143E-1,3.3647594E-1,1.4024623E-1,-2.1199937E-1,2.4327677E-1,-7.2241104E-1,-7.352789E-2,-4.4988292E-1,-2.4308566E-2,2.5337735E-1,-2.9803646E-1,-5.897888E-2,-2.1213274E-1,-8.698497E-2,-1.741342E-1,9.061762E-2,-1.0552599E-1,-2.5040415E-1,-3.0038592E-1,1.832984E-2,2.924948E-1,4.1107467E-1,4.968543E-2,2.4415477E-1,-3.1795526E-1,3.7795523E-1],"split_indices":[4,4,1,4,16,22,18,24,6,0,2,17,15,10,21,8,17,15,15,3,18,15,15,15,24,21,12,8,15,25,15,9,7,13,16,11,22,18,6,0,15,22,9,17,0,21,13,15,16,23,13,15,17,22,16,21,18,21,15,23,1,15,13,0,0,0,0,0,0,0,0,0,0,0,0,0,0,0,0,0,0,0,0,0,0,0,0,0,0,0,0,0,0,0,0,0,0,0,0,0,0,0,0,0,0,0,0,0,0,0,0,0,0,0,0,0,0,0,0,0,0,0,0,0,0,0,0],"split_type":[0,0,0,0,0,0,0,0,0,0,0,0,0,0,0,0,0,0,0,0,0,0,0,0,0,0,0,0,0,0,0,0,0,0,0,0,0,0,0,0,0,0,0,0,0,0,0,0,0,0,0,0,0,0,0,0,0,0,0,0,0,0,0,0,0,0,0,0,0,0,0,0,0,0,0,0,0,0,0,0,0,0,0,0,0,0,0,0,0,0,0,0,0,0,0,0,0,0,0,0,0,0,0,0,0,0,0,0,0,0,0,0,0,0,0,0,0,0,0,0,0,0,0,0,0,0,0],"sum_hessian":[1.559446E7,4.69812E6,1.089634E7,1.6282115E6,3.0699085E6,4.7790875E6,6.1172525E6,5.517613E5,1.0764502E6,5.872224E5,2.4826862E6,2.293835E6,2.4852525E6,2.201901E6,3.9153512E6,5.507563E5,1.00503235E3,8.586836E4,9.905818E5,5.5709156E5,3.013083E4,1.6539701E6,8.287161E5,7.21491E5,1.5723439E6,2.3143428E6,1.7090977E5,8.533349E5,1.3485661E6,2.6325175E6,1.2828339E6,5.46499E5,4.257292E3,4.0563055E2,5.994018E2,1.7156488E4,6.8711875E4,7.9542244E5,1.9515938E5,1.5375195E5,4.033396E5,1.5461218E4,1.4669613E4,1.3899406E6,2.6402956E5,3.4207897E5,4.8663712E5,5.4619906E5,1.7529195E5,1.4018324E6,1.7051158E5,2.1154472E5,2.102798E6,9.672389E4,7.4185875E4,2.8658328E5,5.667516E5,8.8776975E5,4.6079634E5,2.5238815E6,1.0863602E5,1.237782E6,4.50519E4,5.1529362E5,3.1205385E4,4.2039896E2,3.836893E3,2.5188647E2,1.537441E2,5.7110016E2,2.830167E1,6.363079E3,1.0793409E4,4.1942754E4,2.6769121E4,2.810443E5,5.1437816E5,3.0638822E4,1.6452056E5,1.3269598E4,1.4048236E5,3.9502803E5,8.311544E3,3.4315828E3,1.2029635E4,1.0632646E4,4.036966E3,4.3500156E5,9.54939E5,2.6251523E4,2.3777805E5,2.3443209E4,3.1863575E5,4.854409E5,1.1962283E3,3.0226547E5,2.4393361E5,1.4336206E4,1.6095575E5,1.3635082E4,1.3881972E6,1.3714219E5,3.3369387E4,1.7248723E5,3.905748E4,2.0993205E6,3.4775146E3,8.782278E4,8.901111E3,3.0127258E4,4.4058617E4,2.589997E5,2.7583588E4,2.974071E5,2.693445E5,1.3138114E5,7.563886E5,2.9076647E5,1.7002988E5,1.00306945E5,2.4235745E6,7.6384414E4,3.2251605E4,4.0172406E5,8.3605794E5,4.1699297E4,3.3526038E3],"tree_param":{"num_deleted":"0","num_feature":"30","num_nodes":"127","size_leaf_vector":"1"}},{"base_weights":[-3.2012677E-3,-5.381917E-1,1.6534214E-1,-2.7288467E-1,-7.102399E-1,1.04372635E-1,8.658444E-1,7.589648E-2,-4.6099845E-1,-8.591349E-1,-3.9502674E-1,5.845121E-2,8.9492977E-1,8.143619E-1,9.833182E-1,2.1596056E-1,-6.42729E-1,-1.7894118E-1,-7.274317E-1,-8.704829E-1,1.1553503E0,-7.276639E-1,-1.2299183E-1,-1.2345237E-1,2.4522682E-1,8.728159E-1,1.4423771E0,7.8611976E-1,1.0187722E0,9.8440385E-1,-3.8919244E0,-1.1291413E0,2.603563E-1,1.4336078E-1,-8.507161E-1,-8.1900847E-1,-8.513643E-3,-9.5659465E-1,-4.4676927E-1,-8.777496E-1,1.4758531E0,1.4030168E0,-1.3811771E0,1.31456E-1,-7.8404194E-1,-1.8472475E-1,1.2791327E0,-1.5951806E-1,9.9173063E-1,1.5984444E-1,5.865778E-1,8.766641E-1,-1.0209062E0,1.8963556E0,1.1531794E0,8.419903E-1,6.9810504E-1,-4.5312996E0,1.0202074E0,9.8507524E-1,-4.855112E0,-7.8310764E-1,-4.561112E0,-3.5653523E-1,6.677511E-1,1.0980087E-1,-3.817742E-2,2.3915958E-1,-2.61565E-1,-3.1611404E-1,-9.7533695E-2,-3.1004733E-1,-9.746494E-4,-2.8434324E-1,2.0815002E-2,-2.8862244E-1,9.1882247E-1,-6.951463E-2,-2.677837E-1,-2.6482528E-1,5.991236E-1,-2.2620339E-2,6.5241015E-1,4.6787804E-1,-3.9090267E-1,-3.6637935E-1,-5.058014E-1,-2.0017804E-1,3.2302713E-1,-2.4779789E-1,1.5827453E-1,-1.7695047E-2,-2.3962735E-1,4.155164E-1,-4.9413967E-1,-5.3115062E-2,4.821857E-1,3.323678E-1,1.8427436E-1,-2.462642E-2,8.297069E-2,1.9380774E-1,-1.0089544E-1,2.5179082E-1,2.9958725E-1,3.8410153E-3,-9.599213E-1,4.9307367E-1,1.0518917E0,3.5715595E-1,-1.3186964E-1,5.6064013E-2,2.5420842E-1,2.1007961E-1,-1.1988497E0,-6.552795E-1,-1.4800043E0,3.0645144E-1,-1.2095284E0,2.9447138E-1,5.126297E-1,-8.1037706E-1,-1.7420316E0,-8.620646E-1,-1.4610535E0],"categories":[],"categories_nodes":[],"categories_segments":[],"categories_sizes":[],"default_left":[0,0,0,0,0,0,0,0,0,0,0,0,0,0,0,0,0,0,0,0,0,0,0,0,0,0,0,0,0,0,0,0,0,0,0,0,0,0,0,0,0,0,0,0,0,0,0,0,0,0,0,0,0,0,0,0,0,0,0,0,0,0,0,0,0,0,0,0,0,0,0,0,0,0,0,0,0,0,0,0,0,0,0,0,0,0,0,0,0,0,0,0,0,0,0,0,0,0,0,0,0,0,0,0,0,0,0,0,0,0,0,0,0,0,0,0,0,0,0,0,0,0,0,0,0],"id":5,"left_children":[1,3,5,7,9,11,13,15,17,19,21,23,25,27,29,31,33,35,37,39,41,43,45,47,49,51,53,55,57,59,61,63,65,67,69,71,73,75,77,79,81,83,85,87,89,91,93,95,97,99,101,103,105,107,109,111,113,115,117,119,121,-1,123,-1,-1,-1,-1,-1,-1,-1,-1,-1,-1,-1,-1,-1,-1,-1,-1,-1,-1,-1,-1,-1,-1,-1,-1,-1,-1,-1,-1,-1,-1,-1,-1,-1,-1,-1,-1,-1,-1,-1,-1,-1,-1,-1,-1,-1,-1,-1,-1,-1,-1,-1,-1,-1,-1,-1,-1,-1,-1,-1,-1,-1,-1],"loss_changes":[1.3073131E6,1.5854294E5,4.7087425E5,8.964765E4,9.8888625E4,3.6820294E5,5.338E3,4.818677E4,6.670431E4,3.2714875E4,6.1167367E4,3.2567066E5,6.7394688E3,3.5425312E3,1.4275E3,2.3925783E4,1.2767379E4,4.703432E4,2.93575E4,2.426375E4,5.038046E3,1.472975E4,3.2187256E4,1.9531231E5,1.3784116E5,3.9010625E3,2.8358828E3,2.6512812E3,5.981094E2,1.0590469E3,3.9624695E1,2.54987E3,1.5882514E4,1.0846676E4,6.5882305E3,1.5863281E4,2.4914428E4,5.5377812E3,1.9671988E4,2.039825E4,4.7635205E3,3.0967236E3,3.2726685E1,1.4141209E4,1.5703281E4,2.7500145E4,4.8629746E3,1.4571019E5,6.670078E3,1.0683437E5,5.1917438E4,2.4328438E3,2.4455693E3,3.4169102E3,7.860215E2,1.1605312E3,2.1263828E3,7.5733337E0,4.9229688E2,6.802031E2,4.802362E1,0E0,5.896118E0,0E0,0E0,0E0,0E0,0E0,0E0,0E0,0E0,0E0,0E0,0E0,0E0,0E0,0E0,0E0,0E0,0E0,0E0,0E0,0E0,0E0,0E0,0E0,0E0,0E0,0E0,0E0,0E0,0E0,0E0,0E0,0E0,0E0,0E0,0E0,0E0,0E0,0E0,0E0,0E0,0E0,0E0,0E0,0E0,0E0,0E0,0E0,0E0,0E0,0E0,0E0,0E0,0E0,0E0,0E0,0E0,0E0,0E0,0E0,0E0,0E0,0E0],"parents":[2147483647,0,0,1,1,2,2,3,3,4,4,5,5,6,6,7,7,8,8,9,9,10,10,11,11,12,12,13,13,14,14,15,15,16,16,17,17,18,18,19,19,20,20,21,21,22,22,23,23,24,24,25,25,26,26,27,27,28,28,29,29,30,30,31,31,32,32,33,33,34,34,35,35,36,36,37,37,38,38,39,39,40,40,41,41,42,42,43,43,44,44,45,45,46,46,47,47,48,48,49,49,50,50,51,51,52,52,53,53,54,54,55,55,56,56,57,57,58,58,59,59,60,60,62,62],"right_children":[2,4,6,8,10,12,14,16,18,20,22,24,26,28,30,32,34,36,38,40,42,44,46,48,50,52,54,56,58,60,62,64,66,68,70,72,74,76,78,80,82,84,86,88,90,92,94,96,98,100,102,104,106,108,110,112,114,116,118,120,122,-1,124,-1,-1,-1,-1,-1,-1,-1,-1,-1,-1,-1,-1,-1,-1,-1,-1,-1,-1,-1,-1,-1,-1,-1,-1,-1,-1,-1,-1,-1,-1,-1,-1,-1,-1,-1,-1,-1,-1,-1,-1,-1,-1,-1,-1,-1,-1,-1,-1,-1,-1,-1,-1,-1,-1,-1,-1,-1,-1,-1,-1,-1,-1],"split_conditions":[6.7045826E-1,2.7711037E1,1E0,1.6202875E0,6.5180886E-1,1E0,2E0,7.546805E2,4.344407E2,1E0,1.9601429E1,1.1735193E0,9.696941E2,1E0,1.8605049E2,7E0,7.906318E1,3.588183E1,2.1352091E-1,1E0,2.7609697E-1,-9.9421793E-1,1E0,1E0,8.0392796E-1,1.9819443E1,7.8334993E-1,2.6389898E1,-9.937466E-1,3.5E1,5.1089084E2,7.4507837E2,5.39074E1,5.536691E-1,4.715819E-1,2.6458944E1,8E0,1E0,3.114422E0,1E0,7.09895E-1,8.585718E1,4.8036888E-1,1.1773414E1,-1.21209955E1,7.308676E2,1.9154959E2,1E0,1.0626367E0,3.8990986E0,3.1147644E2,5.454196E2,2.2867014E2,1.9149996E0,1.1706898E0,-8.475409E-1,1.6513375E3,4.133355E0,9.994074E-1,1.8628087E3,-3.7770796E-1,-7.8310764E-1,6.6363535E0,-3.5653523E-1,6.677511E-1,1.0980087E-1,-3.817742E-2,2.3915958E-1,-2.61565E-1,-3.1611404E-1,-9.7533695E-2,-3.1004733E-1,-9.746494E-4,-2.8434324E-1,2.0815002E-2,-2.8862244E-1,9.1882247E-1,-6.951463E-2,-2.677837E-1,-2.6482528E-1,5.991236E-1,-2.2620339E-2,6.5241015E-1,4.6787804E-1,-3.9090267E-1,-3.6637935E-1,-5.058014E-1,-2.0017804E-1,3.2302713E-1,-2.4779789E-1,1.5827453E-1,-1.7695047E-2,-2.3962735E-1,4.155164E-1,-4.9413967E-1,-5.3115062E-2,4.821857E-1,3.323678E-1,1.8427436E-1,-2.462642E-2,8.297069E-2,1.9380774E-1,-1.0089544E-1,2.5179082E-1,2.9958725E-1,3.8410153E-3,-9.599213E-1,4.9307367E-1,1.0518917E0,3.5715595E-1,-1.3186964E-1,5.6064013E-2,2.5420842E-1,2.1007961E-1,-1.1988497E0,-6.552795E-1,-1.4800043E0,3.0645144E-1,-1.2095284E0,2.9447138E-1,5.126297E-1,-8.1037706E-1,-1.7420316E0,-8.620646E-1,-1.4610535E0],"split_indices":[4,3,24,2,8,25,24,15,15,25,16,4,5,13,3,23,1,15,21,26,22,21,26,26,22,18,4,0,22,11,5,15,16,3,8,0,23,13,2,13,12,1,4,16,10,15,3,13,8,17,15,15,15,12,8,22,5,17,22,5,21,0,17,0,0,0,0,0,0,0,0,0,0,0,0,0,0,0,0,0,0,0,0,0,0,0,0,0,0,0,0,0,0,0,0,0,0,0,0,0,0,0,0,0,0,0,0,0,0,0,0,0,0,0,0,0,0,0,0,0,0,0,0,0,0],"split_type":[0,0,0,0,0,0,0,0,0,0,0,0,0,0,0,0,0,0,0,0,0,0,0,0,0,0,0,0,0,0,0,0,0,0,0,0,0,0,0,0,0,0,0,0,0,0,0,0,0,0,0,0,0,0,0,0,0,0,0,0,0,0,0,0,0,0,0,0,0,0,0,0,0,0,0,0,0,0,0,0,0,0,0,0,0,0,0,0,0,0,0,0,0,0,0,0,0,0,0,0,0,0,0,0,0,0,0,0,0,0,0,0,0,0,0,0,0,0,0,0,0,0,0,0,0],"sum_hessian":[1.4498459E7,3.4733502E6,1.1025109E7,1.3663589E6,2.1069912E6,1.0142352E7,8.82757E5,4.7873622E5,8.876227E5,1.4310259E6,6.759654E5,9.585553E6,5.5679894E5,6.137781E5,2.6897884E5,4.0064834E5,7.8087875E4,4.3116997E5,4.564527E5,1.4230104E6,8.015568E3,3.041082E5,3.7185722E5,4.8561125E6,4.729441E6,5.3518306E5,2.1615877E4,5.392748E5,7.450331E4,2.6891975E5,5.9086834E1,1.2800304E4,3.8784803E5,1.6338108E4,6.174977E4,9.066386E4,3.4050612E5,2.512791E5,2.0517358E5,1.4186175E6,4.392876E3,7.3029546E3,7.126134E2,1.8727451E4,2.8538075E5,3.561763E5,1.5680907E4,4.7039835E6,1.5212881E5,3.783158E6,9.462827E5,5.3409825E5,1.0848019E3,8.409383E3,1.3206495E4,3.2986962E5,2.0940519E5,1.8445383E1,7.448487E4,2.6888966E5,3.0081625E1,2.1950354E1,3.7136482E1,1.2578585E4,2.2171867E2,3.047788E5,8.306922E4,9.93803E3,6.4000786E3,4.454479E4,1.7204977E4,7.178866E4,1.8875205E4,2.607519E4,3.1443094E5,2.5093772E5,3.413801E2,1.3841173E5,6.676184E4,1.4161545E6,2.462954E3,1.3646377E3,3.028238E3,6.903903E3,3.9905164E2,4.7069382E2,2.419196E2,1.0150907E4,8.576543E3,2.7653634E5,8.844379E3,2.9563703E5,6.0539254E4,1.5133643E4,5.4726495E2,4.657765E6,4.621849E4,1.1632915E5,3.5799668E4,1.2312245E6,2.5519335E6,8.8901725E5,5.7265426E4,4.088564E5,1.2524184E5,7.3641595E2,3.4838593E2,7.269955E3,1.1394282E3,1.290422E4,3.0227487E2,2.6827761E3,3.2718688E5,2.0930972E5,9.547316E1,3.6383939E0,1.480699E1,7.446655E4,1.8325027E1,2.6759634E5,1.2933044E3,1.0394538E1,1.9687088E1,7.3424983E0,2.9793982E1],"tree_param":{"num_deleted":"0","num_feature":"30","num_nodes":"125","size_leaf_vector":"1"}},{"base_weights":[-2.7064362E-3,-3.4628534E-1,1.636737E-1,-5.3843147E-1,8.8459505E-3,-2.6054212E-1,2.4811243E-1,-9.795403E-1,-4.6625885E-1,-9.8763317E-1,6.439827E-2,-7.813725E-1,-1.7212482E-1,2.027907E-1,7.5707215E-1,-1.0454582E0,-8.281925E-1,-8.505262E-1,-3.7135452E-1,-1.2245114E0,-5.6652564E-1,2.7575558E-1,-1.7882776E-1,-8.580651E-1,-4.268411E-1,1.7890161E-1,-2.923766E-1,1.6564874E-1,7.788439E-1,7.0430124E-1,8.8281494E-1,-6.322982E-1,-1.0552789E0,-4.693614E-1,-9.488456E-1,-9.532702E-1,-4.1289836E-1,-2.6750726E-1,-8.75798E-1,-1.7331481E-1,-1.2884301E0,-9.0196633E-1,2.2070639E-1,4.636375E-1,-1.0921252E-2,-7.818173E-2,-5.8491576E-1,-9.8157096E-1,-5.5602276E-1,-1.4561856E0,-1.1102346E-1,2.3536915E-1,-1.6896755E0,-4.456508E-2,-4.5851392E-1,1.325277E-1,7.2882414E-1,8.353624E-1,6.261092E-1,6.7955244E-1,9.082359E-1,8.835271E-1,-3.261952E0,-2.619918E-1,2.8801339E0,-3.0529165E-1,-3.280461E-1,9.8763996E-1,-1.890019E-1,-3.6649413E-2,-2.985607E-1,-2.865755E-1,1.9881436E0,-1.14650205E-2,-2.0387244E-1,-3.9738536E-2,-2.0694704E-1,-2.866626E-1,9.2260994E-2,4.460068E-1,-3.6455825E-1,-7.366648E-2,-4.0116107E-1,-1.182207E-1,-4.1988274E-1,1.3749449E-1,-3.0510515E-1,1.761812E-1,-1.6331083E-1,4.513531E-2,-8.60309E-2,4.35882E-2,-8.416069E-2,2.90791E-1,-1.9446294E-1,-2.1626441E-1,-3.2164916E-1,1.5289014E-2,-3.0869424E-1,-5.252915E-1,-4.0435734E-1,3.0831188E-1,-1.2740487E-1,-1.5960002E-1,1.0842145E-1,-5.282434E-1,3.3273727E-1,4.1485075E-3,-3.3652234E-1,-2.0664917E-1,-5.6708574E-2,5.010149E-2,-1.0122682E-1,2.2575937E-1,1.3619046E-1,3.7982196E-1,2.4474716E-1,-1.1701549E-1,1.9427268E-1,2.1400642E-1,1.5137708E-1,2.7302068E-1,-1.0327586E0,2.5533482E-1,2.9138526E-1,-1.729958E0,-6.7539907E-1],"categories":[],"categories_nodes":[],"categories_segments":[],"categories_sizes":[],"default_left":[0,0,0,0,0,0,0,0,0,0,0,0,0,0,0,0,0,0,0,0,0,0,0,0,0,0,0,0,0,0,0,0,0,0,0,0,0,0,0,0,0,0,0,0,0,0,0,0,0,0,0,0,0,0,0,0,0,0,0,0,0,0,0,0,0,0,0,0,0,0,0,0,0,0,0,0,0,0,0,0,0,0,0,0,0,0,0,0,0,0,0,0,0,0,0,0,0,0,0,0,0,0,0,0,0,0,0,0,0,0,0,0,0,0,0,0,0,0,0,0,0,0,0,0,0,0,0],"id":6,"left_children":[1,3,5,7,9,11,13,15,17,19,21,23,25,27,29,31,33,35,37,39,41,43,45,47,49,51,53,55,57,59,61,63,65,67,69,71,73,75,77,79,81,83,85,87,89,91,93,95,97,99,101,103,105,107,109,111,113,115,117,119,121,123,125,-1,-1,-1,-1,-1,-1,-1,-1,-1,-1,-1,-1,-1,-1,-1,-1,-1,-1,-1,-1,-1,-1,-1,-1,-1,-1,-1,-1,-1,-1,-1,-1,-1,-1,-1,-1,-1,-1,-1,-1,-1,-1,-1,-1,-1,-1,-1,-1,-1,-1,-1,-1,-1,-1,-1,-1,-1,-1,-1,-1,-1,-1,-1,-1],"loss_changes":[7.8320075E5,3.0502244E5,3.3064725E5,9.234394E4,8.6877305E4,7.0564766E4,1.7757825E5,4.068125E3,9.0907875E4,8.26593E3,7.6419305E4,6.0461875E3,5.5295504E4,1.5124481E5,4.1763125E3,1.1521562E3,5.3571094E3,2.2198844E4,1.0472072E5,3.5633984E3,7.8790654E3,4.2840035E4,2.824852E4,6.8197344E3,1.2857678E4,3.5268566E4,4.0170664E4,1.23869625E5,3.6955938E3,2.2372656E3,5.52125E2,1.6282543E4,3.98E2,1.8819365E4,3.548836E3,6.01175E3,9.379833E3,9.454641E4,3.2204688E4,5.261723E3,2.5427422E3,5.287463E3,2.6224658E3,5.9879133E4,1.4017459E4,2.5047428E4,1.3504879E4,3.0638594E3,1.5233773E4,2.9417578E2,1.0811078E4,3.1379426E4,1.9540293E3,2.4631643E4,3.6253867E4,1.0162113E5,2.4031406E3,2.6289844E3,2.523004E3,2.3381406E3,3.8580078E2,5.2834375E2,6.847214E1,0E0,0E0,0E0,0E0,0E0,0E0,0E0,0E0,0E0,0E0,0E0,0E0,0E0,0E0,0E0,0E0,0E0,0E0,0E0,0E0,0E0,0E0,0E0,0E0,0E0,0E0,0E0,0E0,0E0,0E0,0E0,0E0,0E0,0E0,0E0,0E0,0E0,0E0,0E0,0E0,0E0,0E0,0E0,0E0,0E0,0E0,0E0,0E0,0E0,0E0,0E0,0E0,0E0,0E0,0E0,0E0,0E0,0E0,0E0,0E0,0E0,0E0,0E0,0E0],"parents":[2147483647,0,0,1,1,2,2,3,3,4,4,5,5,6,6,7,7,8,8,9,9,10,10,11,11,12,12,13,13,14,14,15,15,16,16,17,17,18,18,19,19,20,20,21,21,22,22,23,23,24,24,25,25,26,26,27,27,28,28,29,29,30,30,31,31,32,32,33,33,34,34,35,35,36,36,37,37,38,38,39,39,40,40,41,41,42,42,43,43,44,44,45,45,46,46,47,47,48,48,49,49,50,50,51,51,52,52,53,53,54,54,55,55,56,56,57,57,58,58,59,59,60,60,61,61,62,62],"right_children":[2,4,6,8,10,12,14,16,18,20,22,24,26,28,30,32,34,36,38,40,42,44,46,48,50,52,54,56,58,60,62,64,66,68,70,72,74,76,78,80,82,84,86,88,90,92,94,96,98,100,102,104,106,108,110,112,114,116,118,120,122,124,126,-1,-1,-1,-1,-1,-1,-1,-1,-1,-1,-1,-1,-1,-1,-1,-1,-1,-1,-1,-1,-1,-1,-1,-1,-1,-1,-1,-1,-1,-1,-1,-1,-1,-1,-1,-1,-1,-1,-1,-1,-1,-1,-1,-1,-1,-1,-1,-1,-1,-1,-1,-1,-1,-1,-1,-1,-1,-1,-1,-1,-1,-1,-1,-1],"split_conditions":[7.555547E-1,5.4524046E-1,-6.963762E-1,3.4960648E-1,8E0,6.8820014E0,1E0,3.0217323E-1,6.8820014E0,7E0,1.5806131E0,2.9093124E1,-3.536761E-1,1E0,2E0,1.9987253E1,1.2502577E0,-3.772916E1,6.927104E2,5.947267E-1,2.1765217E1,2.595118E-1,2.145364E0,4.127915E2,7.1576567E0,5.13118E0,1.6410717E0,1E0,1.4548792E0,1E0,2.2902815E1,1.4767918E1,1.958471E0,8.612713E1,-9.721182E-1,1E0,2.5537024E0,2.843158E0,3E0,9.217847E1,6.8937675E1,1.2036048E1,2.2255337E1,6.3796673E1,4.6655525E1,7.9430595E1,7.2584444E-1,6.6178314E1,-6.1334178E-2,7.369147E-1,1.1417876E0,2.594958E1,2E0,8.1273834E2,1.1522673E0,6.857193E2,1.7229146E0,-1.0464074E2,-4.7495106E-1,1.5391543E0,1.626599E2,1.4819023E1,2.3283802E1,-2.619918E-1,2.8801339E0,-3.0529165E-1,-3.280461E-1,9.8763996E-1,-1.890019E-1,-3.6649413E-2,-2.985607E-1,-2.865755E-1,1.9881436E0,-1.14650205E-2,-2.0387244E-1,-3.9738536E-2,-2.0694704E-1,-2.866626E-1,9.2260994E-2,4.460068E-1,-3.6455825E-1,-7.366648E-2,-4.0116107E-1,-1.182207E-1,-4.1988274E-1,1.3749449E-1,-3.0510515E-1,1.761812E-1,-1.6331083E-1,4.513531E-2,-8.60309E-2,4.35882E-2,-8.416069E-2,2.90791E-1,-1.9446294E-1,-2.1626441E-1,-3.2164916E-1,1.5289014E-2,-3.0869424E-1,-5.252915E-1,-4.0435734E-1,3.0831188E-1,-1.2740487E-1,-1.5960002E-1,1.0842145E-1,-5.282434E-1,3.3273727E-1,4.1485075E-3,-3.3652234E-1,-2.0664917E-1,-5.6708574E-2,5.010149E-2,-1.0122682E-1,2.2575937E-1,1.3619046E-1,3.7982196E-1,2.4474716E-1,-1.1701549E-1,1.9427268E-1,2.1400642E-1,1.5137708E-1,2.7302068E-1,-1.0327586E0,2.5533482E-1,2.9138526E-1,-1.729958E0,-6.7539907E-1],"split_indices":[8,21,22,4,23,16,24,4,16,23,2,0,21,26,24,6,2,9,15,21,17,22,12,15,15,2,2,25,8,13,18,3,2,1,21,14,2,2,11,6,1,17,3,3,16,1,18,15,19,3,4,0,24,15,4,15,8,9,22,8,3,17,17,0,0,0,0,0,0,0,0,0,0,0,0,0,0,0,0,0,0,0,0,0,0,0,0,0,0,0,0,0,0,0,0,0,0,0,0,0,0,0,0,0,0,0,0,0,0,0,0,0,0,0,0,0,0,0,0,0,0,0,0,0,0,0,0],"split_type":[0,0,0,0,0,0,0,0,0,0,0,0,0,0,0,0,0,0,0,0,0,0,0,0,0,0,0,0,0,0,0,0,0,0,0,0,0,0,0,0,0,0,0,0,0,0,0,0,0,0,0,0,0,0,0,0,0,0,0,0,0,0,0,0,0,0,0,0,0,0,0,0,0,0,0,0,0,0,0,0,0,0,0,0,0,0,0,0,0,0,0,0,0,0,0,0,0,0,0,0,0,0,0,0,0,0,0,0,0,0,0,0,0,0,0,0,0,0,0,0,0,0,0,0,0,0,0],"sum_hessian":[1.3700772E7,4.470038E6,9.230735E6,2.9006318E6,1.5694061E6,1.5323391E6,7.6983955E6,4.078565E5,2.4927752E6,8.2871305E4,1.4865349E6,2.2238016E5,1.309959E6,7.068925E6,6.2947056E5,2.8410966E5,1.23746836E5,4.937154E5,1.9990599E6,5.3035992E4,2.9835316E4,7.953744E5,6.911605E5,1.8282894E5,3.9551215E4,3.3425025E5,9.7570875E5,6.640753E6,4.2817197E5,4.4339575E5,1.8607481E5,6.5979585E3,2.775117E5,3.1139787E4,9.260705E4,3.998415E5,9.38739E4,1.657782E6,3.4127784E5,3.040251E3,4.999574E4,2.0920791E4,8.914525E3,4.804784E5,3.1489597E5,5.538851E5,1.3727533E5,1.2976535E5,5.3063586E4,9.285001E3,3.0266215E4,3.244465E5,9.80375E3,3.9159872E5,5.8411006E5,6.271896E6,3.6885684E5,3.1252112E5,1.1565086E5,3.9541406E5,4.7981715E4,1.8604364E5,3.1180462E1,6.447029E3,1.5092967E2,1.398088E5,1.377029E5,1.2746405E3,2.9865146E4,4.917461E3,8.7689586E4,3.9973788E5,1.0360826E2,3.9033203E4,5.48407E4,1.2561121E6,4.0166984E5,3.1973156E5,2.1546264E4,1.1721934E3,1.8680576E3,2.234011E3,4.7761727E4,1.0354605E4,1.0566186E4,7.479331E3,1.4351942E3,4.279859E5,5.2492516E4,1.9867238E5,1.16223586E5,2.632059E5,2.9067922E5,5.3710845E3,1.3190425E5,3.3467723E4,9.629763E4,2.3239412E4,2.9824174E4,2.4910615E3,6.7939395E3,6.5358306E3,2.3730385E4,4.5770324E4,2.7867616E5,9.56111E3,2.4263972E2,3.714628E5,2.013592E4,3.1494206E5,2.6916797E5,5.843217E6,4.2867894E5,3.3956653E5,2.9290314E4,1.355904E4,2.9896206E5,2.392223E3,1.1325864E5,3.3138772E5,6.4026344E4,4.7962297E4,1.9416395E1,1.358728E5,5.0170836E4,7.61145E0,2.3569012E1],"tree_param":{"num_deleted":"0","num_feature":"30","num_nodes":"127","size_leaf_vector":"1"}},{"base_weights":[-3.8312748E-3,1.9470681E-1,-1.9431676E-1,-1.973041E-1,2.5723252E-1,-7.3918533E-1,-1.2751785E-1,1.12435E-1,-4.1237283E-1,-5.215179E-1,2.9151484E-1,-1.0061531E0,-6.1063296E-1,-3.516414E-1,3.853437E-2,-6.4248824E-1,2.9850113E-1,2.1098979E-1,-6.3761413E-1,-4.3525112E-1,-1.1543692E0,4.0743923E-1,1.5001367E-1,-1.0213928E0,-9.9899925E-2,-4.8462096E-1,-8.7866E-1,-1.7694849E-1,-4.9159455E-1,1.1294944E-1,-7.3746574E-1,-8.259898E-1,1.0909505E0,1.3643678E0,1.6321512E-1,1.0668347E0,-3.019957E-2,-5.210942E-3,-7.586227E-1,-3.82775E-1,-1.284252E0,-1.1985073E0,6.808878E-1,4.3461853E-1,-9.498627E-1,-1.620641E-1,3.6638945E-1,-1.0251878E0,4.269504E-1,-7.5448835E-1,1.479982E0,-7.991806E-1,-3.3752447E-1,1.1003611E0,-9.4692516E-1,-7.316914E-2,-7.967139E-1,-7.432482E-1,-3.520295E-1,1.5125808E-1,-8.642715E-1,-1.0716469E0,-4.0058446E-1,-3.0670103E-1,-1.3521825E-1,5.678224E-1,-2.5893E-2,-3.8590208E-1,4.500429E-1,-3.729101E-2,1.05694786E-1,4.7436568E-1,4.108614E-2,-3.3911473E-1,3.1489052E-2,-1.0247045E-1,2.5685278E-1,-2.7328926E-1,-7.686134E-2,-1.8746367E-1,-4.9468838E-2,-2.5123513E-1,-5.122774E-1,-2.0321964E-1,-4.096321E-1,8.3261156E-1,-6.5448475E-1,1.5782517E-1,-1.7207522E-3,-3.6050558E-1,-1.6911099E-2,-2.5448576E-3,-1.6860284E-1,1.6747673E-1,2.1687564E-2,-2.646471E-1,-3.1274253E-1,2.4540187E-1,-4.5640713E-1,3.495537E-1,-3.262257E-1,2.1003554E0,9.151144E-2,-1.5568458E-1,-3.118976E-1,-2.7618247E-1,-4.9774934E-2,-3.3300793E-1,5.977086E-1,2.7579417E-2,-2.9235846E-1,4.448627E-2,-1.4456794E-1,-1.5681209E-2,-3.0281764E-1,-1.02461286E-1,-2.4737547E-1,1.4089746E-3,-1.2814079E-1,6.113149E-2,-1.2427197E-1,-2.1231797E-1,-3.8715813E-1,-1.5108298E-1,-3.5862687E-1,-1.5237203E-2,-2.652084E-1],"categories":[],"categories_nodes":[],"categories_segments":[],"categories_sizes":[],"default_left":[0,0,0,0,0,0,0,0,0,0,0,0,0,0,0,0,0,0,0,0,0,0,0,0,0,0,0,0,0,0,0,0,0,0,0,0,0,0,0,0,0,0,0,0,0,0,0,0,0,0,0,0,0,0,0,0,0,0,0,0,0,0,0,0,0,0,0,0,0,0,0,0,0,0,0,0,0,0,0,0,0,0,0,0,0,0,0,0,0,0,0,0,0,0,0,0,0,0,0,0,0,0,0,0,0,0,0,0,0,0,0,0,0,0,0,0,0,0,0,0,0,0,0,0,0,0,0],"id":7,"left_children":[1,3,5,7,9,11,13,15,17,19,21,23,25,27,29,31,33,35,37,39,41,43,45,47,49,51,53,55,57,59,61,63,65,67,69,71,73,75,77,79,81,83,85,87,89,91,93,95,97,99,101,103,105,107,109,111,113,115,117,119,121,123,125,-1,-1,-1,-1,-1,-1,-1,-1,-1,-1,-1,-1,-1,-1,-1,-1,-1,-1,-1,-1,-1,-1,-1,-1,-1,-1,-1,-1,-1,-1,-1,-1,-1,-1,-1,-1,-1,-1,-1,-1,-1,-1,-1,-1,-1,-1,-1,-1,-1,-1,-1,-1,-1,-1,-1,-1,-1,-1,-1,-1,-1,-1,-1,-1],"loss_changes":[4.9249847E5,1.5629392E5,2.4189566E5,5.8431742E4,1.4681938E5,2.4908594E4,2.2033103E5,5.0492266E4,7.268767E4,1.2659172E4,8.640506E4,3.2579688E3,1.6545984E4,6.1600656E4,1.963784E5,2.261013E4,4.1583938E4,2.836418E4,2.910161E4,9.091352E3,2.2541328E3,1.0681431E5,1.6017689E5,1.2756094E3,4.0369302E3,1.5418906E4,2.116671E4,7.208203E4,4.9131312E4,1.1616939E5,3.3500734E4,4.735418E3,6.423044E3,1.1691727E4,1.3913592E4,1.4449848E4,1.5941215E4,1.7697182E4,2.4431375E4,1.0137975E4,2.2454355E3,2.362082E3,3.9266624E3,1.1433031E5,1.2789375E4,5.965807E4,7.904497E4,5.712344E2,4.6372687E2,1.7651594E3,7.4162754E3,7.154789E3,2.2720043E4,1.0303107E4,4.3428906E3,8.6890195E4,2.5450023E4,1.63053125E4,2.4108914E4,8.867575E4,7.81025E3,1.0502719E4,2.5060035E4,0E0,0E0,0E0,0E0,0E0,0E0,0E0,0E0,0E0,0E0,0E0,0E0,0E0,0E0,0E0,0E0,0E0,0E0,0E0,0E0,0E0,0E0,0E0,0E0,0E0,0E0,0E0,0E0,0E0,0E0,0E0,0E0,0E0,0E0,0E0,0E0,0E0,0E0,0E0,0E0,0E0,0E0,0E0,0E0,0E0,0E0,0E0,0E0,0E0,0E0,0E0,0E0,0E0,0E0,0E0,0E0,0E0,0E0,0E0,0E0,0E0,0E0,0E0,0E0],"parents":[2147483647,0,0,1,1,2,2,3,3,4,4,5,5,6,6,7,7,8,8,9,9,10,10,11,11,12,12,13,13,14,14,15,15,16,16,17,17,18,18,19,19,20,20,21,21,22,22,23,23,24,24,25,25,26,26,27,27,28,28,29,29,30,30,31,31,32,32,33,33,34,34,35,35,36,36,37,37,38,38,39,39,40,40,41,41,42,42,43,43,44,44,45,45,46,46,47,47,48,48,49,49,50,50,51,51,52,52,53,53,54,54,55,55,56,56,57,57,58,58,59,59,60,60,61,61,62,62],"right_children":[2,4,6,8,10,12,14,16,18,20,22,24,26,28,30,32,34,36,38,40,42,44,46,48,50,52,54,56,58,60,62,64,66,68,70,72,74,76,78,80,82,84,86,88,90,92,94,96,98,100,102,104,106,108,110,112,114,116,118,120,122,124,126,-1,-1,-1,-1,-1,-1,-1,-1,-1,-1,-1,-1,-1,-1,-1,-1,-1,-1,-1,-1,-1,-1,-1,-1,-1,-1,-1,-1,-1,-1,-1,-1,-1,-1,-1,-1,-1,-1,-1,-1,-1,-1,-1,-1,-1,-1,-1,-1,-1,-1,-1,-1,-1,-1,-1,-1,-1,-1,-1,-1,-1,-1,-1,-1],"split_conditions":[3.8557782E0,5.1619668E-2,4.2936614E-1,1.8959648E2,1.2992543E2,2.9668465E-1,7.3907766E0,5.4407448E1,1.4154029E-1,2.9144832E-1,3.6210757E2,-1.7401373E1,2.3116958E0,9.838727E2,8.018187E2,2.2166213E3,7.645709E-1,9.094458E-1,1.5418664E0,1.5274217E1,6.1539106E0,1.6858374E1,9.211722E0,1E0,5.0079E-1,-1.500554E-1,-9.721182E-1,1.7229146E0,6.8820014E0,1.5558137E1,6.9328123E-1,1.9098175E1,-9.1060466E-1,7E0,1.1503522E0,1.223673E0,6.404956E0,-1.7976658E-1,1.113274E0,3.98473E1,-9.147938E-2,-3.8049435E1,-3.850639E-1,1.7229146E0,3.3155508E2,5.2844745E2,2.4284972E-1,5.1632717E1,5.243666E-1,1.9987253E1,5.034044E-1,2.6757517E3,3.3226871E-1,3.4479601E0,8.1884575E1,4.169778E2,5.815706E1,1.2992543E2,1.8391843E2,4.975133E-1,2.7952944E1,1.4115816E1,2.378657E1,-3.0670103E-1,-1.3521825E-1,5.678224E-1,-2.5893E-2,-3.8590208E-1,4.500429E-1,-3.729101E-2,1.05694786E-1,4.7436568E-1,4.108614E-2,-3.3911473E-1,3.1489052E-2,-1.0247045E-1,2.5685278E-1,-2.7328926E-1,-7.686134E-2,-1.8746367E-1,-4.9468838E-2,-2.5123513E-1,-5.122774E-1,-2.0321964E-1,-4.096321E-1,8.3261156E-1,-6.5448475E-1,1.5782517E-1,-1.7207522E-3,-3.6050558E-1,-1.6911099E-2,-2.5448576E-3,-1.6860284E-1,1.6747673E-1,2.1687564E-2,-2.646471E-1,-3.1274253E-1,2.4540187E-1,-4.5640713E-1,3.495537E-1,-3.262257E-1,2.1003554E0,9.151144E-2,-1.5568458E-1,-3.118976E-1,-2.7618247E-1,-4.9774934E-2,-3.3300793E-1,5.977086E-1,2.7579417E-2,-2.9235846E-1,4.448627E-2,-1.4456794E-1,-1.5681209E-2,-3.0281764E-1,-1.02461286E-1,-2.4737547E-1,1.4089746E-3,-1.2814079E-1,6.113149E-2,-1.2427197E-1,-2.1231797E-1,-3.8715813E-1,-1.5108298E-1,-3.5862687E-1,-1.5237203E-2,-2.652084E-1],"split_indices":[3,21,4,15,15,4,17,15,22,20,15,9,2,6,15,6,4,4,2,17,12,17,17,24,7,22,21,8,16,18,21,16,21,23,8,3,17,21,8,15,20,10,19,8,15,15,22,3,8,6,7,6,7,18,1,15,1,15,15,22,17,17,0,0,0,0,0,0,0,0,0,0,0,0,0,0,0,0,0,0,0,0,0,0,0,0,0,0,0,0,0,0,0,0,0,0,0,0,0,0,0,0,0,0,0,0,0,0,0,0,0,0,0,0,0,0,0,0,0,0,0,0,0,0,0,0,0],"split_type":[0,0,0,0,0,0,0,0,0,0,0,0,0,0,0,0,0,0,0,0,0,0,0,0,0,0,0,0,0,0,0,0,0,0,0,0,0,0,0,0,0,0,0,0,0,0,0,0,0,0,0,0,0,0,0,0,0,0,0,0,0,0,0,0,0,0,0,0,0,0,0,0,0,0,0,0,0,0,0,0,0,0,0,0,0,0,0,0,0,0,0,0,0,0,0,0,0,0,0,0,0,0,0,0,0,0,0,0,0,0,0,0,0,0,0,0,0,0,0,0,0,0,0,0,0,0,0],"sum_hessian":[1.3022642E7,6.3765395E6,6.6461025E6,8.771516E5,5.499388E6,7.258057E5,5.9202965E6,3.5946106E5,5.1769056E5,2.3188642E5,5.2675015E6,2.3589986E5,4.8990584E5,2.519578E6,3.4007188E6,7.10774E4,2.8838366E5,1.374084E5,3.8028216E5,2.0407036E5,2.7816055E4,2.8954288E6,2.3720728E6,2.3199839E5,3.9014573E3,3.3323794E5,1.5666789E5,1.1206981E6,1.3988798E6,3.1031418E6,2.9757706E5,6.42739E4,6.803501E3,3.2479678E4,2.5590398E5,3.0209285E4,1.07199125E5,6.1078855E4,3.192033E5,1.9219253E5,1.1877826E4,2.7163125E4,6.5292865E2,2.838588E6,5.684063E4,9.712475E5,1.4008254E6,2.3139238E5,6.060143E2,2.758894E3,1.1425631E3,1.0617745E5,2.270605E5,5.2234595E3,1.5144442E5,9.599553E5,1.6074283E5,4.9904088E5,8.998389E5,2.9860832E6,1.1705844E5,1.4938611E5,1.4819095E5,4.2194777E4,2.207912E4,4.0467761E3,2.7567249E3,1.5822023E3,3.0897475E4,1.0153117E5,1.543728E5,1.9449605E4,1.0759678E4,1.17281875E4,9.547094E4,4.3926785E4,1.7152072E4,2.4493439E5,7.4268914E4,9.103448E4,1.0115806E5,5.780226E3,6.0975996E3,6.5915596E3,2.0571566E4,3.7706323E2,2.7586542E2,2.3503915E6,4.881967E5,4.4342707E4,1.2497921E4,7.017663E5,2.6948116E5,8.477567E5,5.5306875E5,2.4956783E4,2.064356E5,5.0519406E2,1.0082022E2,4.0739087E2,2.3515032E3,1.9961055E2,9.429526E2,4.9037086E4,5.7140367E4,5.16299E4,1.754306E5,1.5017822E3,3.7216772E3,3.9197495E3,1.4752467E5,6.226103E5,3.3734497E5,3.5718316E4,1.2502451E5,8.403059E4,4.1501028E5,1.565046E5,7.433343E5,2.732351E6,2.537323E5,8.561753E4,3.1440902E4,2.672838E4,1.22657734E5,8.598089E4,6.2210062E4],"tree_param":{"num_deleted":"0","num_feature":"30","num_nodes":"127","size_leaf_vector":"1"}},{"base_weights":[-4.6656756E-3,1.2474324E-1,-1.8252616E-1,8.785339E-2,6.3964003E-1,-4.6784243E-1,-6.348671E-2,-7.061034E-1,1.1130951E-1,6.002709E-1,8.5873395E-1,-3.0305597E-1,-7.203771E-1,-4.799912E-1,9.493028E-3,-1.1219918E0,-4.2648467E-1,-1.6182767E-1,1.6734467E-1,6.5275127E-1,4.5038405E-1,7.4902916E-1,9.653269E-1,1.2109675E-3,-4.7459146E-1,-1.006327E0,-6.4194494E-1,-1.50237E-1,-5.634664E-1,6.0069986E-2,-6.0276514E-1,-1.0032765E0,-1.5523653E0,-1.576302E-1,-7.523915E-1,9.013758E-2,-3.398548E-1,1.5387236E-1,1.1138577E0,6.276628E-1,9.1570044E-1,-2.7847798E0,4.5443377E-1,7.5007826E-1,-2.5263112E0,-2.7929122E0,9.6719706E-1,3.8669863E-1,-2.2944501E-1,-6.991133E-1,-2.7854526E-1,-1.0234601E0,-2.9749104E-1,-5.206571E-1,-8.5348415E-1,-1.1497195E0,-6.0231127E-2,-7.0658374E-1,-3.456784E-1,3.1431434E-1,-4.55335E-2,-1.2419579E-1,-8.0936134E-1,3.3477116E-1,-3.0714267E-1,-4.7874075E-1,4.9483278E-1,-2.915884E-1,-1.2754445E-2,-1.9634931E-1,-4.891573E-1,1.9426143E-1,-5.902387E-3,1.3388465E-2,-1.6714238E-1,4.90498E-2,-3.699075E-1,6.715886E-1,3.2678524E-1,-8.3493453E-1,1.8903965E-1,2.7594E-1,-2.7134457E0,2.7851E-1,-2.486526E0,1.3745737E-1,-7.758476E-1,2.1769136E-1,3.1568354E-1,-5.0658876E-1,-9.3370175E-1,2.9035985E-1,-2.4219227E0,1.6717632E-1,-1.3450882E-1,-2.8346855E-2,-3.1579694E-1,-4.632268E-2,-2.3235853E-1,-7.2221714E-3,-1.566464E-1,-1.5701425E-1,-3.0888098E-1,-1.6557166E-1,3.9911869E0,6.0242902E-2,-1.7434622E-1,-2.5852057E-1,5.8005303E-1,-4.013271E-1,1.9753313E-1,-5.6355815E-2,2.561781E-1,-2.1900794E-1,1.6028294E-1,-7.974561E-3,-2.0855269E-1,-1.0279805E-2,1.9629364E-1,-6.481238E-2,3.7929878E-2,-6.3147135E-2,4.4010237E-1,-2.1159334E-1,-3.6018303E-1],"categories":[],"categories_nodes":[],"categories_segments":[],"categories_sizes":[],"default_left":[0,0,0,0,0,0,0,0,0,0,0,0,0,0,0,0,0,0,0,0,1,0,0,0,0,0,0,0,0,0,0,0,0,0,0,0,0,0,0,0,0,0,0,0,0,0,0,0,0,0,0,0,0,0,0,0,0,0,0,0,0,0,0,0,0,0,0,0,0,0,0,0,0,0,0,0,0,0,0,0,0,0,0,0,0,0,0,0,0,0,0,0,0,0,0,0,0,0,0,0,0,0,0,0,0,0,0,0,0,0,0,0,0,0,0,0,0,0,0,0,0,0,0,0,0],"id":8,"left_children":[1,3,5,7,9,11,13,15,17,19,21,23,25,27,29,31,33,35,37,39,41,43,45,47,49,51,53,55,57,59,61,63,65,67,69,71,73,75,77,79,81,83,85,87,-1,89,91,93,95,97,99,101,103,105,107,109,111,113,115,117,119,121,123,-1,-1,-1,-1,-1,-1,-1,-1,-1,-1,-1,-1,-1,-1,-1,-1,-1,-1,-1,-1,-1,-1,-1,-1,-1,-1,-1,-1,-1,-1,-1,-1,-1,-1,-1,-1,-1,-1,-1,-1,-1,-1,-1,-1,-1,-1,-1,-1,-1,-1,-1,-1,-1,-1,-1,-1,-1,-1,-1,-1,-1,-1],"loss_changes":[2.8510934E5,1.3619305E5,1.7718625E5,1.2460358E5,4.1342344E3,6.3911812E4,1.1189169E5,2.2326766E4,9.946585E4,3.1960938E3,8.5308594E2,4.8506523E4,1.3600469E4,1.5107242E4,9.6993875E4,3.9421562E3,1.0059564E4,4.9624598E4,6.876344E4,1.9848984E3,1.3819277E3,3.5251367E2,2.6295703E2,2.9791787E4,2.6159734E4,1.5849844E3,1.22100625E4,9.973648E3,1.3650734E4,7.7681164E4,2.363032E4,2.6337344E3,2.323371E3,5.897452E3,4.4602305E3,2.803588E4,5.415767E4,7.098834E4,2.08925E3,2.3158672E3,1.0786582E3,2.7029873E3,1.2036758E3,2.6500586E2,0E0,1.3314056E0,2.3167969E2,1.7864664E4,2.3288957E4,1.1380344E4,1.9668748E4,3.9098438E2,1.0672476E4,1.3202484E4,3.98975E3,3.1150244E3,1.1866416E4,7.688297E3,1.9369004E4,1.0062934E5,5.993861E4,9.896038E3,6.795086E3,0E0,0E0,0E0,0E0,0E0,0E0,0E0,0E0,0E0,0E0,0E0,0E0,0E0,0E0,0E0,0E0,0E0,0E0,0E0,0E0,0E0,0E0,0E0,0E0,0E0,0E0,0E0,0E0,0E0,0E0,0E0,0E0,0E0,0E0,0E0,0E0,0E0,0E0,0E0,0E0,0E0,0E0,0E0,0E0,0E0,0E0,0E0,0E0,0E0,0E0,0E0,0E0,0E0,0E0,0E0,0E0,0E0,0E0,0E0,0E0,0E0,0E0],"parents":[2147483647,0,0,1,1,2,2,3,3,4,4,5,5,6,6,7,7,8,8,9,9,10,10,11,11,12,12,13,13,14,14,15,15,16,16,17,17,18,18,19,19,20,20,21,21,22,22,23,23,24,24,25,25,26,26,27,27,28,28,29,29,30,30,31,31,32,32,33,33,34,34,35,35,36,36,37,37,38,38,39,39,40,40,41,41,42,42,43,43,45,45,46,46,47,47,48,48,49,49,50,50,51,51,52,52,53,53,54,54,55,55,56,56,57,57,58,58,59,59,60,60,61,61,62,62],"right_children":[2,4,6,8,10,12,14,16,18,20,22,24,26,28,30,32,34,36,38,40,42,44,46,48,50,52,54,56,58,60,62,64,66,68,70,72,74,76,78,80,82,84,86,88,-1,90,92,94,96,98,100,102,104,106,108,110,112,114,116,118,120,122,124,-1,-1,-1,-1,-1,-1,-1,-1,-1,-1,-1,-1,-1,-1,-1,-1,-1,-1,-1,-1,-1,-1,-1,-1,-1,-1,-1,-1,-1,-1,-1,-1,-1,-1,-1,-1,-1,-1,-1,-1,-1,-1,-1,-1,-1,-1,-1,-1,-1,-1,-1,-1,-1,-1,-1,-1,-1,-1,-1,-1,-1,-1],"split_conditions":[8.37246E0,1E0,6.319056E-1,7E0,1E0,5.4179417E1,6.8820014E0,5E0,5.1619668E-2,2.6975784E1,3.531539E2,1.5611153E0,2.9113755E-1,1.4553181E2,7.308676E2,4.0238964E1,3.78375E1,1.9820287E2,1E0,1.1315797E3,-5.892014E-1,6.084221E-1,4.6297505E-1,1.931775E3,-1.1275178E2,9.209713E-1,9.003048E-1,8E0,1.059358E0,-6.744436E-1,3.0932022E2,1.689791E1,7.2205534E0,-1.4579919E-1,8.251791E2,8.318877E-1,1.5855938E-1,1.2601904E3,6.7812353E-1,7.411953E-1,1.5119787E0,9.4740915E-1,4.721761E0,7.561178E1,-2.5263112E0,6.412518E-1,7.217425E-1,8.5682396E1,2.6040369E1,1.3721028E2,4.0432205E2,-9.937466E-1,3.282889E3,-2.869734E2,1E0,1.4816329E3,1.3463174E-1,6.3034534E2,1.6179309E0,1.8788921E3,1.0425275E1,8.298925E1,9.801251E-1,3.3477116E-1,-3.0714267E-1,-4.7874075E-1,4.9483278E-1,-2.915884E-1,-1.2754445E-2,-1.9634931E-1,-4.891573E-1,1.9426143E-1,-5.902387E-3,1.3388465E-2,-1.6714238E-1,4.90498E-2,-3.699075E-1,6.715886E-1,3.2678524E-1,-8.3493453E-1,1.8903965E-1,2.7594E-1,-2.7134457E0,2.7851E-1,-2.486526E0,1.3745737E-1,-7.758476E-1,2.1769136E-1,3.1568354E-1,-5.0658876E-1,-9.3370175E-1,2.9035985E-1,-2.4219227E0,1.6717632E-1,-1.3450882E-1,-2.8346855E-2,-3.1579694E-1,-4.632268E-2,-2.3235853E-1,-7.2221714E-3,-1.566464E-1,-1.5701425E-1,-3.0888098E-1,-1.6557166E-1,3.9911869E0,6.0242902E-2,-1.7434622E-1,-2.5852057E-1,5.8005303E-1,-4.013271E-1,1.9753313E-1,-5.6355815E-2,2.561781E-1,-2.1900794E-1,1.6028294E-1,-7.974561E-3,-2.0855269E-1,-1.0279805E-2,1.9629364E-1,-6.481238E-2,3.7929878E-2,-6.3147135E-2,4.4010237E-1,-2.1159334E-1,-3.6018303E-1],"split_indices":[3,24,8,23,13,3,16,23,21,0,15,2,4,15,15,17,5,15,13,6,20,20,8,6,10,21,12,23,4,21,5,0,12,21,15,4,22,15,4,12,4,4,2,1,0,12,20,1,0,15,15,22,6,9,13,5,20,15,8,6,17,1,7,0,0,0,0,0,0,0,0,0,0,0,0,0,0,0,0,0,0,0,0,0,0,0,0,0,0,0,0,0,0,0,0,0,0,0,0,0,0,0,0,0,0,0,0,0,0,0,0,0,0,0,0,0,0,0,0,0,0,0,0,0,0],"split_type":[0,0,0,0,0,0,0,0,0,0,0,0,0,0,0,0,0,0,0,0,0,0,0,0,0,0,0,0,0,0,0,0,0,0,0,0,0,0,0,0,0,0,0,0,0,0,0,0,0,0,0,0,0,0,0,0,0,0,0,0,0,0,0,0,0,0,0,0,0,0,0,0,0,0,0,0,0,0,0,0,0,0,0,0,0,0,0,0,0,0,0,0,0,0,0,0,0,0,0,0,0,0,0,0,0,0,0,0,0,0,0,0,0,0,0,0,0,0,0,0,0,0,0,0,0],"sum_hessian":[1.2387045E7,7.170144E6,5.216901E6,6.690783E6,4.7936097E5,1.5358176E6,3.6810832E6,1.91995E5,6.498788E6,4.0634784E5,7.3013125E4,9.293748E5,6.064428E5,5.4883094E5,3.1322522E6,7.718764E4,1.1480735E5,1.1062914E6,5.3924965E6,3.0096625E5,1.0538158E5,3.598531E4,3.7027816E4,3.3505703E5,5.943178E5,1.3053248E5,4.759103E5,1.10868234E5,4.3796272E5,2.8932498E6,2.3900248E5,6.0501957E4,1.6685682E4,6.291093E4,5.189642E4,4.5803128E5,6.4826006E5,5.31682E6,7.567648E4,2.7475478E5,2.6211496E4,1.3089061E2,1.0525069E5,3.598211E4,3.1983156E0,1.7673893E1,3.701014E4,1.25429766E5,2.0962727E5,2.7703778E5,3.1728E5,1.2745143E5,3.0810474E3,3.0248278E5,1.7342755E5,9.158181E3,1.01710055E5,2.6428688E5,1.7367586E5,8.49073E5,2.0441769E6,7.206628E4,1.669362E5,5.80057E2,5.99219E4,1.6462842E4,2.2284073E2,7.79083E3,5.51201E4,4.669287E4,5.2035537E3,7.5383586E4,3.826477E5,2.3407352E5,4.1418653E5,5.2801695E6,3.665072E4,1.616076E3,7.40604E4,1.9796028E2,2.745568E5,2.6201621E4,9.876275E0,7.86554E1,5.2235203E1,1.0512163E5,1.2905635E2,3.329295E4,2.6891602E3,5.375793E0,1.22980995E1,3.7008297E4,1.8460602E0,1.0415677E5,2.1272996E4,1.8010273E5,2.952454E4,3.369199E4,2.433458E5,1.5518097E5,1.6209905E5,1.5476941E3,1.25903734E5,3.0254165E3,5.563086E1,2.3401514E4,2.7908125E5,1.7291631E5,5.112348E2,8.295737E3,8.624437E2,8.925092E4,1.2459133E4,2.5938686E5,4.900005E3,9.078698E4,8.288888E4,4.192454E5,4.2982756E5,1.0264416E6,1.01773525E6,6.835984E4,3.7064443E3,1.318692E5,3.5067004E4],"tree_param":{"num_deleted":"0","num_feature":"30","num_nodes":"125","size_leaf_vector":"1"}},{"base_weights":[-4.9771233E-3,-3.1892747E-2,6.1912966E-1,-4.7141798E-2,1.0479237E0,8.4740233E-1,5.452458E-1,-1.9291276E-1,5.366646E-2,1.2110368E0,8.129214E-1,1.9969938E0,8.1710106E-1,5.461479E-1,-6.898071E0,-5.734062E-2,-4.2269784E-1,-1.2340065E-1,1.3121554E-1,1.0939873E0,1.6096755E0,7.101527E-1,9.267115E-1,1.4138978E0,4.7604713E0,8.245284E-1,-2.1942081E0,4.9862722E-1,6.845906E-1,-4.137935E0,-8.000353E0,3.9988935E-2,-3.2490903E-1,-5.312915E-1,-2.1984166E-1,1.14243664E-1,-2.6076406E-1,1.04793884E-1,5.580944E-1,1.0088185E0,1.3589646E0,2.3063455E0,1.5202243E0,7.12084E-1,-1.8636949E0,-6.597621E-1,9.29974E-1,1.8865802E0,8.375844E-2,5.0870314E0,-3.575489E-1,8.2963675E-1,-2.320213E0,-1.6385729E0,-4.056616E0,-2.356111E0,5.024722E-1,-8.076448E0,6.860225E-1,-1.4835389E0,-5.4665464E-1,-2.484939E0,-1.058185E0,2.0297877E-2,-2.1360886E-1,-7.564728E-2,-2.5783676E-1,-5.2104987E-2,-1.8016657E-1,-3.522574E-2,-2.0424634E-1,8.6858496E-2,-7.3194556E-2,-5.173299E-2,-2.1075428E-1,5.5447888E-2,-9.566318E-3,9.018775E-2,1.8024689E-1,4.6479458E-1,2.9076785E-1,4.1017175E-1,-8.3969474E-1,4.191501E-1,8.114323E-1,6.007581E-1,4.292359E-1,1.8616202E-1,2.5089023E-1,2.796345E-1,-8.0103606E-1,-4.313129E-1,6.332607E-1,-5.016825E-1,3.3333126E-1,1.3695095E0,2.1895957E0,6.353415E-1,2.4548616E-1,-4.8561242E-1,-8.002405E-1,-4.6886882E-1,-1.2069982E0,-1.4340576E0,-7.8605443E-1,-6.068467E-1,-1.0965523E0,1.7315687E-1,1.143992E-1,-7.3889387E-1,-3.061525E0,1.80508E-1,2.4077858E-1],"categories":[],"categories_nodes":[],"categories_segments":[],"categories_sizes":[],"default_left":[0,0,0,0,0,0,0,0,0,0,0,0,0,0,0,0,0,0,0,0,0,0,0,0,0,0,0,0,0,0,0,0,0,0,0,0,0,0,0,0,0,0,0,0,0,0,0,0,0,0,0,0,0,0,0,0,0,0,0,0,0,0,0,0,0,0,0,0,0,0,0,0,0,0,0,0,0,0,0,0,0,0,0,0,0,0,0,0,0,0,0,0,0,0,0,0,0,0,0,0,0,0,0,0,0,0,0,0,0,0,0,0,0],"id":9,"left_children":[1,3,5,7,9,11,13,15,17,19,21,23,25,27,29,31,33,35,37,39,41,43,45,47,49,51,53,55,57,59,61,63,65,67,69,71,73,75,77,79,81,83,85,87,-1,-1,89,91,93,95,-1,97,99,101,103,105,107,109,111,-1,-1,-1,-1,-1,-1,-1,-1,-1,-1,-1,-1,-1,-1,-1,-1,-1,-1,-1,-1,-1,-1,-1,-1,-1,-1,-1,-1,-1,-1,-1,-1,-1,-1,-1,-1,-1,-1,-1,-1,-1,-1,-1,-1,-1,-1,-1,-1,-1,-1,-1,-1,-1,-1],"loss_changes":[2.0111584E5,1.8898998E5,8.347781E3,1.6631172E5,6.1254844E3,4.2144375E3,2.5145078E3,1.4414103E5,9.187239E4,4.4002656E3,7.651367E2,5.000756E3,2.6393281E3,2.4595625E3,1.04978516E2,7.5784336E4,3.7821562E4,6.652115E4,5.2479117E4,1.6445312E3,1.3307969E3,4.6450977E2,3.189453E2,1.6141509E3,1.0577158E3,1.8917109E3,2.938838E2,3.0566328E3,1.2042188E3,1.9072449E1,1.0452026E1,4.440294E4,3.0185422E4,2.7698719E4,2.8264504E4,4.686983E4,5.0383336E4,4.7931035E4,2.9834062E3,1.1796562E3,6.1406055E2,8.7806836E2,8.157617E2,3.9070898E2,0E0,0E0,2.417461E2,1.4154414E3,1.218214E3,5.5901953E2,0E0,1.7153672E3,4.2220825E1,3.438324E1,5.613257E1,1.5479224E2,2.5159766E3,1.6237524E2,9.38625E2,0E0,0E0,0E0,0E0,0E0,0E0,0E0,0E0,0E0,0E0,0E0,0E0,0E0,0E0,0E0,0E0,0E0,0E0,0E0,0E0,0E0,0E0,0E0,0E0,0E0,0E0,0E0,0E0,0E0,0E0,0E0,0E0,0E0,0E0,0E0,0E0,0E0,0E0,0E0,0E0,0E0,0E0,0E0,0E0,0E0,0E0,0E0,0E0,0E0,0E0,0E0,0E0,0E0,0E0],"parents":[2147483647,0,0,1,1,2,2,3,3,4,4,5,5,6,6,7,7,8,8,9,9,10,10,11,11,12,12,13,13,14,14,15,15,16,16,17,17,18,18,19,19,20,20,21,21,22,22,23,23,24,24,25,25,26,26,27,27,28,28,29,29,30,30,31,31,32,32,33,33,34,34,35,35,36,36,37,37,38,38,39,39,40,40,41,41,42,42,43,43,46,46,47,47,48,48,49,49,51,51,52,52,53,53,54,54,55,55,56,56,57,57,58,58],"right_children":[2,4,6,8,10,12,14,16,18,20,22,24,26,28,30,32,34,36,38,40,42,44,46,48,50,52,54,56,58,60,62,64,66,68,70,72,74,76,78,80,82,84,86,88,-1,-1,90,92,94,96,-1,98,100,102,104,106,108,110,112,-1,-1,-1,-1,-1,-1,-1,-1,-1,-1,-1,-1,-1,-1,-1,-1,-1,-1,-1,-1,-1,-1,-1,-1,-1,-1,-1,-1,-1,-1,-1,-1,-1,-1,-1,-1,-1,-1,-1,-1,-1,-1,-1,-1,-1,-1,-1,-1,-1,-1,-1,-1,-1,-1],"split_conditions":[1E0,1E0,9.29402E-1,8.635636E-1,1E0,4.5354465E-1,1E0,2.0563288E0,-4.2889193E-1,1.114313E3,6.846144E1,3.590997E0,4.3288217E0,2E0,2.4255249E1,4.5054035E1,4.4822934E-1,-9.453675E-2,1E0,6.3563714E0,5.1861672E0,2.0353862E3,4.2194253E-1,1.1273479E1,3.8024528E0,1.5558137E1,8.6382246E-1,3.98473E1,2.00893E1,6.744163E1,2.1081184E2,1.1146881E3,7.4507837E2,8.082852E-1,4.719791E1,3.2882698E0,1.4548792E0,3.5708798E2,1.8656198E2,-1.2020805E-1,9.575626E0,3.2303467E2,5.7270074E-1,8.236686E0,-1.8636949E0,-6.597621E-1,1.9997668E3,3.9761767E-1,7.044668E2,6.0735614E2,-3.575489E-1,3.244388E-1,6.97464E-1,1E0,6.821728E1,7.469721E-1,4.08603E-1,8.4745973E-1,3.0403784E2,-1.4835389E0,-5.4665464E-1,-2.484939E0,-1.058185E0,2.0297877E-2,-2.1360886E-1,-7.564728E-2,-2.5783676E-1,-5.2104987E-2,-1.8016657E-1,-3.522574E-2,-2.0424634E-1,8.6858496E-2,-7.3194556E-2,-5.173299E-2,-2.1075428E-1,5.5447888E-2,-9.566318E-3,9.018775E-2,1.8024689E-1,4.6479458E-1,2.9076785E-1,4.1017175E-1,-8.3969474E-1,4.191501E-1,8.114323E-1,6.007581E-1,4.292359E-1,1.8616202E-1,2.5089023E-1,2.796345E-1,-8.0103606E-1,-4.313129E-1,6.332607E-1,-5.016825E-1,3.3333126E-1,1.3695095E0,2.1895957E0,6.353415E-1,2.4548616E-1,-4.8561242E-1,-8.002405E-1,-4.6886882E-1,-1.2069982E0,-1.4340576E0,-7.8605443E-1,-6.068467E-1,-1.0965523E0,1.7315687E-1,1.143992E-1,-7.3889387E-1,-3.061525E0,1.80508E-1,2.4077858E-1],"split_indices":[25,13,7,8,24,7,22,2,22,6,1,2,2,25,0,3,21,21,26,3,17,6,8,17,2,18,4,15,0,1,15,15,15,3,16,2,8,15,15,21,18,15,4,17,0,0,5,8,15,15,0,12,4,24,1,21,3,4,15,0,0,0,0,0,0,0,0,0,0,0,0,0,0,0,0,0,0,0,0,0,0,0,0,0,0,0,0,0,0,0,0,0,0,0,0,0,0,0,0,0,0,0,0,0,0,0,0,0,0,0,0,0,0],"split_type":[0,0,0,0,0,0,0,0,0,0,0,0,0,0,0,0,0,0,0,0,0,0,0,0,0,0,0,0,0,0,0,0,0,0,0,0,0,0,0,0,0,0,0,0,0,0,0,0,0,0,0,0,0,0,0,0,0,0,0,0,0,0,0,0,0,0,0,0,0,0,0,0,0,0,0,0,0,0,0,0,0,0,0,0,0,0,0,0,0,0,0,0,0,0,0,0,0,0,0,0,0,0,0,0,0,0,0,0,0,0,0,0,0],"sum_hessian":[1.1972445E7,1.1477461E7,4.9498328E5,1.1317636E7,1.598255E5,1.210316E5,3.739517E5,4.6269555E6,6.69068E6,9.4340445E4,6.5485062E4,3.1065906E3,1.1792501E5,3.7390728E5,4.438568E1,2.9100445E6,1.7169114E6,2.0377969E6,4.6528835E6,7.293022E4,2.1410223E4,3.441271E4,3.107235E4,2.5665566E3,5.400339E2,1.17635586E5,2.894187E2,2.7836328E5,9.554402E4,1.4023796E1,3.0361887E1,2.1338462E6,7.76198E5,1.1182726E6,5.9863875E5,7.464346E5,1.2913622E6,4.3816805E6,2.7120288E5,5.519445E4,1.7735775E4,2.4334082E3,1.8976814E4,3.440401E4,8.701202E0,3.1694803E1,3.1040656E4,1.8933217E3,6.73235E2,5.120848E2,2.7949055E1,1.1744555E5,1.9004475E2,2.2436188E2,6.505684E1,3.7359485E2,2.779897E5,1.4692512E1,9.552933E4,9.557086E0,4.466711E0,2.7755478E1,2.6064095E0,2.0581185E6,7.572792E4,6.832145E5,9.298355E4,1.8145023E5,9.368224E5,4.8981147E5,1.0882727E5,5.011938E5,2.452408E5,1.0761958E6,2.1516644E5,2.7635272E6,1.6181531E6,3.860282E4,2.3260005E5,3.7645383E3,5.142991E4,1.770122E4,3.455531E1,7.428339E2,1.6905743E3,2.9652192E3,1.6011595E4,1.9810365E4,1.4593646E4,3.1022947E4,1.7707958E1,1.1932585E2,1.7739958E3,2.4825943E2,4.2497556E2,4.167784E2,9.5306404E1,1.0241138E3,1.1642143E5,6.4800316E1,1.2524444E2,2.190655E2,5.2963758E0,4.171559E1,2.3341244E1,2.993503E2,7.424452E1,1.7193823E5,1.0605144E5,4.632668E0,1.0059844E1,5.5434168E4,4.0095164E4],"tree_param":{"num_deleted":"0","num_feature":"30","num_nodes":"113","size_leaf_vector":"1"}},{"base_weights":[-3.6397658E-3,-2.744103E-2,5.172292E-1,-2.3269814E-3,-4.9299577E-1,4.5171493E-1,6.925918E-1,-2.153469E-2,5.382596E-1,-8.8287824E-1,-3.4488562E-1,6.6473734E-1,3.9599597E-1,8.792679E-1,6.39421E-1,-6.292046E-1,-6.027684E-3,7.425057E-1,4.1064206E-1,-6.9465274E-1,-9.5465064E-1,-7.3830956E-1,-2.0300147E-1,-1.0701212E0,6.761222E-1,4.3387735E-1,2.503565E-1,-2.1946263E0,8.86421E-1,1.4508873E0,6.275521E-1,-9.4654274E-1,-4.1265294E-1,-1.5049425E-2,1.0299348E0,7.457553E0,7.3792654E-1,5.166958E-1,2.5710407E-1,-7.992415E-1,1.5405864E-1,1.8119024E0,-9.614509E-1,-7.708988E-1,9.924521E-1,-1.0428978E-1,-9.99341E-1,-3.8573258E0,-1.4547037E-1,7.131305E-1,2.726881E-1,4.4120353E-1,-5.7292557E-1,2.9057768E-1,-5.588055E-1,-1.7716889E0,-4.806718E0,-3.696068E0,8.901493E-1,-3.579823E0,1.5242034E0,6.299332E-1,-2.4571872E0,-1.9127043E-1,-3.3146754E-1,-1.7985469E-1,-2.8569061E-2,-6.8743727E-3,3.081599E-1,5.818576E-1,2.771149E-1,-2.4190448E-1,2.307031E0,1.9880606E-1,3.3388573E-1,8.221703E-2,1.7887871E-1,-1.3799331E0,7.9523385E-2,-1.9629918E-1,-3.005877E-1,-1.9266509E-1,1.3755296E0,1.8194084E0,-3.257694E-1,-2.9356363E-1,-7.2604716E-2,-2.8664768E-1,-1.72084E-1,-3.76263E-1,6.081518E-1,-1.2585142E-1,2.2906307E-2,-3.0707225E-1,1.9413395E0,-6.805515E-1,-1.6506287E0,1.6857047E-1,-8.147041E-1,2.6528946E-1,1.91449E-1,1.1636454E-1,-9.0492994E-1,1.5330535E-1,1.159348E-1,-1.6978774E0,-8.063768E-2,8.851792E-2,-1.9424454E0,-7.48094E-3,-1.0443288E0,-4.295603E-1,-6.4112926E-1,-1.7513951E0,-4.7860885E-1,-5.716712E-1,-1.2818612E0,-8.692134E-1,2.6828992E-1,-2.1053908E0,-7.951297E-1,6.6461295E-1,3.362941E-1,1.599192E-1,2.0922E-1,-7.988054E-1,-5.883436E-1],"categories":[],"categories_nodes":[],"categories_segments":[],"categories_sizes":[],"default_left":[0,0,0,0,0,0,0,0,0,0,0,0,0,0,0,0,0,0,0,0,0,0,0,0,0,0,0,0,0,0,0,0,0,0,0,0,0,0,0,0,0,0,0,0,0,0,0,0,0,0,0,0,0,0,0,0,0,0,0,0,0,0,0,0,0,0,0,0,0,0,0,0,0,0,0,0,0,0,0,0,0,0,0,0,0,0,0,0,0,0,0,0,0,0,0,0,0,0,0,0,0,0,0,0,0,0,0,0,0,0,0,0,0,0,0,0,0,0,0,0,0,0,0,0,0,0,0],"id":10,"left_children":[1,3,5,7,9,11,13,15,17,19,21,23,25,27,29,31,33,35,37,39,41,43,45,47,49,51,53,55,57,59,61,63,65,67,69,71,73,75,77,79,81,83,85,87,89,91,93,95,97,99,101,103,105,107,109,111,113,115,117,119,121,123,125,-1,-1,-1,-1,-1,-1,-1,-1,-1,-1,-1,-1,-1,-1,-1,-1,-1,-1,-1,-1,-1,-1,-1,-1,-1,-1,-1,-1,-1,-1,-1,-1,-1,-1,-1,-1,-1,-1,-1,-1,-1,-1,-1,-1,-1,-1,-1,-1,-1,-1,-1,-1,-1,-1,-1,-1,-1,-1,-1,-1,-1,-1,-1,-1],"loss_changes":[1.4397978E5,1.29854016E5,5.8302812E3,1.0941859E5,3.2825438E4,4.385164E3,1.3694844E3,9.589206E4,9.424258E3,2.1135078E3,2.2995727E4,1.513707E3,1.6156758E3,6.7470703E2,1.0338164E3,1.7401133E4,9.274232E4,4.269922E3,3.6234414E3,3.8351875E3,2.1331484E3,6.159551E3,2.3800121E4,1.2875366E3,1.1360703E3,1.714582E3,1.9677151E3,7.027838E1,5.248281E2,5.7639966E2,7.793086E2,5.0244453E3,8.927654E3,8.064109E4,8.275164E3,1.8808057E2,3.9199297E3,2.5408555E3,3.5222256E3,1.1292754E3,1.6730357E4,3.4342998E3,1.3896719E3,3.9024258E3,4.6947173E3,1.5339031E4,6.051535E3,3.1277942E2,6.857484E2,8.939375E2,2.42463E3,8.8183594E2,2.596641E3,1.7483022E3,4.4667207E3,4.758911E0,2.1668777E1,1.7687012E1,4.8208203E2,5.340509E1,4.229319E2,6.911211E2,3.1241455E0,0E0,0E0,0E0,0E0,0E0,0E0,0E0,0E0,0E0,0E0,0E0,0E0,0E0,0E0,0E0,0E0,0E0,0E0,0E0,0E0,0E0,0E0,0E0,0E0,0E0,0E0,0E0,0E0,0E0,0E0,0E0,0E0,0E0,0E0,0E0,0E0,0E0,0E0,0E0,0E0,0E0,0E0,0E0,0E0,0E0,0E0,0E0,0E0,0E0,0E0,0E0,0E0,0E0,0E0,0E0,0E0,0E0,0E0,0E0,0E0,0E0,0E0,0E0,0E0],"parents":[2147483647,0,0,1,1,2,2,3,3,4,4,5,5,6,6,7,7,8,8,9,9,10,10,11,11,12,12,13,13,14,14,15,15,16,16,17,17,18,18,19,19,20,20,21,21,22,22,23,23,24,24,25,25,26,26,27,27,28,28,29,29,30,30,31,31,32,32,33,33,34,34,35,35,36,36,37,37,38,38,39,39,40,40,41,41,42,42,43,43,44,44,45,45,46,46,47,47,48,48,49,49,50,50,51,51,52,52,53,53,54,54,55,55,56,56,57,57,58,58,59,59,60,60,61,61,62,62],"right_children":[2,4,6,8,10,12,14,16,18,20,22,24,26,28,30,32,34,36,38,40,42,44,46,48,50,52,54,56,58,60,62,64,66,68,70,72,74,76,78,80,82,84,86,88,90,92,94,96,98,100,102,104,106,108,110,112,114,116,118,120,122,124,126,-1,-1,-1,-1,-1,-1,-1,-1,-1,-1,-1,-1,-1,-1,-1,-1,-1,-1,-1,-1,-1,-1,-1,-1,-1,-1,-1,-1,-1,-1,-1,-1,-1,-1,-1,-1,-1,-1,-1,-1,-1,-1,-1,-1,-1,-1,-1,-1,-1,-1,-1,-1,-1,-1,-1,-1,-1,-1,-1,-1,-1,-1,-1,-1],"split_conditions":[1E0,8.603513E1,2E0,1E0,3.124611E-1,7.961824E-1,8.010192E-1,6E0,1.0626367E0,7.0359215E1,1.0027332E1,8E0,1.4951541E0,4.336597E-1,5.413002E-1,4E0,1E0,3.27469E-1,2.923712E-1,2.3810283E3,1.7144034E2,2.7408655E1,7.178794E2,1.5558137E1,5.702423E-1,9.976303E-1,1.4767918E1,6.5590346E-1,-9.893142E-1,9.938853E-1,1.8605049E2,2.0277287E1,2.6957127E1,1E0,7.257709E-1,2E0,8.300418E2,1.9991458E2,-5.892014E-1,5.1207404E2,3.525484E-1,-4.602692E-1,9.6439976E-1,3.872228E-2,8.943649E0,-9.882014E-2,9.021796E1,6.5590346E-1,1.9819443E1,6.090214E-1,3.082315E-1,7.070154E-2,1.0403869E0,7.0029106E1,-1.1574916E1,4.739814E-1,1.4088718E0,4.859683E0,-1.8838094E2,6.483258E1,-7.206671E-1,5.3470144E0,-7.35417E-1,-1.9127043E-1,-3.3146754E-1,-1.7985469E-1,-2.8569061E-2,-6.8743727E-3,3.081599E-1,5.818576E-1,2.771149E-1,-2.4190448E-1,2.307031E0,1.9880606E-1,3.3388573E-1,8.221703E-2,1.7887871E-1,-1.3799331E0,7.9523385E-2,-1.9629918E-1,-3.005877E-1,-1.9266509E-1,1.3755296E0,1.8194084E0,-3.257694E-1,-2.9356363E-1,-7.2604716E-2,-2.8664768E-1,-1.72084E-1,-3.76263E-1,6.081518E-1,-1.2585142E-1,2.2906307E-2,-3.0707225E-1,1.9413395E0,-6.805515E-1,-1.6506287E0,1.6857047E-1,-8.147041E-1,2.6528946E-1,1.91449E-1,1.1636454E-1,-9.0492994E-1,1.5330535E-1,1.159348E-1,-1.6978774E0,-8.063768E-2,8.851792E-2,-1.9424454E0,-7.48094E-3,-1.0443288E0,-4.295603E-1,-6.4112926E-1,-1.7513951E0,-4.7860885E-1,-5.716712E-1,-1.2818612E0,-8.692134E-1,2.6828992E-1,-2.1053908E0,-7.951297E-1,6.6461295E-1,3.362941E-1,1.599192E-1,2.0922E-1,-7.988054E-1,-5.883436E-1],"split_indices":[24,1,24,26,4,8,8,23,8,3,16,23,8,8,12,23,14,4,3,5,5,0,15,18,22,22,3,4,22,7,3,17,16,13,4,26,5,15,20,15,7,19,8,22,3,22,1,4,18,7,20,3,8,1,10,4,2,17,10,3,22,17,21,0,0,0,0,0,0,0,0,0,0,0,0,0,0,0,0,0,0,0,0,0,0,0,0,0,0,0,0,0,0,0,0,0,0,0,0,0,0,0,0,0,0,0,0,0,0,0,0,0,0,0,0,0,0,0,0,0,0,0,0,0,0,0,0],"split_type":[0,0,0,0,0,0,0,0,0,0,0,0,0,0,0,0,0,0,0,0,0,0,0,0,0,0,0,0,0,0,0,0,0,0,0,0,0,0,0,0,0,0,0,0,0,0,0,0,0,0,0,0,0,0,0,0,0,0,0,0,0,0,0,0,0,0,0,0,0,0,0,0,0,0,0,0,0,0,0,0,0,0,0,0,0,0,0,0,0,0,0,0,0,0,0,0,0,0,0,0,0,0,0,0,0,0,0,0,0,0,0,0,0,0,0,0,0,0,0,0,0,0,0,0,0,0,0],"sum_hessian":[1.1613762E7,1.1106259E7,5.075029E5,1.0537805E7,5.6845406E5,3.6947356E5,1.3802933E5,1.0176232E7,3.615731E5,1.5649488E5,4.1195922E5,7.6601766E4,2.928718E5,3.0595783E4,1.0743355E5,2.5322228E5,9.92301E6,1.3904042E5,2.2253269E5,4.320336E4,1.13291516E5,1.0918923E5,3.0276997E5,4.988069E2,7.610296E4,2.3241727E5,6.045453E4,7.032316E1,3.052546E4,1.5469769E3,1.0588657E5,1.02708414E5,1.5051388E5,9.837342E6,8.566809E4,9.364153E1,1.3894678E5,1.3161767E5,9.0915016E4,3.846347E4,4.7398877E3,2.7713907E2,1.13014375E5,1.07171805E5,2.0174288E3,2.6937966E5,3.3390312E4,1.23466415E2,3.7534045E2,6.970768E4,6.3952783E3,2.3073881E5,1.6784576E3,5.7592414E4,2.8621172E3,6.1967873E1,8.355281E0,2.4009872E1,3.0501451E4,2.1534327E1,1.5254425E3,1.05805695E5,8.087589E1,3.4803656E4,6.790475E4,9.4740484E4,5.577339E4,9.763663E6,7.367879E4,8.956116E3,7.671198E4,2.495455E0,9.114608E1,1.1573096E5,2.321582E4,3.2503203E4,9.911447E4,1.4807274E2,9.076694E4,2.2432209E4,1.6031261E4,4.0185867E3,7.2130096E2,1.118686E2,1.6527046E2,1.10391016E5,2.623357E3,5.5364895E4,5.180691E4,6.360902E2,1.3813386E3,9.8135984E4,1.7124369E5,3.3283207E4,1.0710262E2,6.401154E1,5.945488E1,2.9494675E2,8.0393715E1,2.1228113E4,4.8479566E4,6.17973E3,2.1554834E2,1.0141788E5,1.2932093E5,9.3700294E1,1.5847574E3,5.755524E4,3.7173653E1,2.420862E3,4.412553E2,3.4656593E1,2.7311281E1,5.705234E0,2.650047E0,6.8987136E0,1.7111158E1,3.2623997E1,3.0468826E4,3.1883476E0,1.8345978E1,5.6038354E2,9.65059E2,4.3441305E4,6.2364387E4,5.4097E1,2.6778893E1],"tree_param":{"num_deleted":"0","num_feature":"30","num_nodes":"127","size_leaf_vector":"1"}},{"base_weights":[-2.633712E-3,-2.0230351E-2,4.6400946E-1,1.387293E-2,-2.498948E-1,3.9520705E-1,6.6316694E-1,-5.3484386E-1,2.7405541E-2,-8.735174E-1,-1.9966966E-1,9.017212E-1,3.7193584E-1,2.5704632E0,6.491786E-1,-6.809693E-1,-6.775759E-2,1.8460162E-2,8.0131567E-1,-9.254946E-1,-3.5383174E-1,-5.501421E-1,-1.3943374E-1,-5.405275E0,9.2215455E-1,1.9835608E-1,4.4753283E-1,1.7882345E0,1.0227111E1,-2.4461565E0,6.573584E-1,-1.1234177E0,-4.9507582E-1,-4.081835E-1,6.540201E-1,2.9421816E-2,-5.8692E-1,9.3056315E-1,6.4767975E-1,-7.1439314E-1,-9.835208E-1,-9.043514E-1,3.528318E-1,-1.8884273E-1,-7.227892E-1,-8.5537404E-2,-7.039144E-1,-6.2960973E0,-3.431007E0,8.6417776E-1,2.8594213E0,-1.6084474E0,2.194044E-1,4.4307864E-1,1.8400555E0,1.9326516E0,-2.286324E0,-3.9364803E-1,3.2954955E0,-2.0288017E0,-4.4651456E0,6.9365895E-1,2.2642292E-1,-2.819056E-1,-4.6163887E-1,-2.091876E-1,-6.463674E-2,-5.552809E-3,-1.948051E-1,2.6216054E-1,-4.066328E-1,-5.03738E-2,1.832781E-2,-1.4469029E-1,-4.632698E-1,3.1292596E-1,2.270841E-1,1.6142888E-1,2.5830898E-1,-8.5714084E-5,-2.746706E-1,-2.2739463E-1,-3.0315113E-1,2.6027933E-1,-3.2469338E-1,3.5657825E0,5.3573452E-2,1.9957407E-1,-1.1306275E-1,-2.6102352E-1,-1.3450797E-1,4.7526605E-2,-6.1126076E-2,-1.6717691E-3,-2.7091807E-1,-9.5125407E-1,-2.1879802E0,-3.5541466E-1,-1.0926555E0,2.6764348E-1,-5.612642E-1,-3.4906858E-1,1.1571505E0,1.2091289E-1,-8.203825E-1,-6.151434E-1,6.9938E-2,1.3425796E-1,-8.433778E-1,6.705957E-1,-7.9638773E-1,4.62563E-1,8.9843684E-1,-7.044436E-1,-2.1063404E-1,-4.152624E-1,-7.055202E-1,-8.328052E-1,-1.6323866E0,2.2555977E-1,1.24129005E-1,7.2831966E-2,-2.279136E0],"categories":[],"categories_nodes":[],"categories_segments":[],"categories_sizes":[],"default_left":[0,0,0,0,0,0,0,0,0,0,0,0,0,0,0,0,0,0,0,0,0,0,0,0,0,0,0,0,0,0,0,0,0,0,0,0,0,0,0,0,0,0,0,0,0,0,0,0,0,0,0,0,0,0,0,0,0,0,0,0,0,0,0,0,0,0,0,0,0,0,0,0,0,0,0,0,0,0,0,0,0,0,0,0,0,0,0,0,0,0,0,0,0,0,0,0,0,0,0,0,0,0,0,0,0,0,0,0,0,0,0,0,0,0,0,0,0,0,0,0,0,0,0],"id":11,"left_children":[1,3,5,7,9,11,13,15,17,19,21,23,25,27,29,31,33,35,37,39,41,43,45,47,49,51,53,55,57,59,61,63,65,67,69,71,73,75,77,79,81,83,85,87,89,91,93,95,97,99,101,103,105,107,109,111,113,-1,-1,115,117,119,121,-1,-1,-1,-1,-1,-1,-1,-1,-1,-1,-1,-1,-1,-1,-1,-1,-1,-1,-1,-1,-1,-1,-1,-1,-1,-1,-1,-1,-1,-1,-1,-1,-1,-1,-1,-1,-1,-1,-1,-1,-1,-1,-1,-1,-1,-1,-1,-1,-1,-1,-1,-1,-1,-1,-1,-1,-1,-1,-1,-1],"loss_changes":[9.37758E4,8.619668E4,5.686242E3,7.115456E4,4.456729E4,3.6353477E3,2.841207E3,1.5741539E4,6.474127E4,2.8644219E3,2.7799941E4,1.7509492E3,3.8695781E3,4.6261313E3,2.6798945E3,1.4448477E4,1.350468E4,6.1348703E4,2.1212969E3,1.1802969E3,3.752337E3,1.2046977E4,3.4187234E4,5.559973E1,1.5143633E3,3.4028977E3,1.2733672E3,4.1914355E2,6.411748E2,2.2604675E2,1.6502305E3,3.9650234E3,6.994547E3,3.5097012E3,7.782935E3,5.6750645E4,1.6466473E4,1.1329375E3,1.1410742E3,2.9868389E3,4.594375E2,1.7105186E3,8.486863E3,1.0029433E4,5.281961E3,2.9583367E4,1.3620738E4,6.740747E1,3.2018738E0,1.00478125E3,1.5778977E3,2.3352097E3,2.7552036E3,2.965332E3,1.169031E3,2.7812256E2,7.5897217E-1,0E0,0E0,4.5256226E1,6.2329163E1,1.5849727E3,1.0505327E3,0E0,0E0,0E0,0E0,0E0,0E0,0E0,0E0,0E0,0E0,0E0,0E0,0E0,0E0,0E0,0E0,0E0,0E0,0E0,0E0,0E0,0E0,0E0,0E0,0E0,0E0,0E0,0E0,0E0,0E0,0E0,0E0,0E0,0E0,0E0,0E0,0E0,0E0,0E0,0E0,0E0,0E0,0E0,0E0,0E0,0E0,0E0,0E0,0E0,0E0,0E0,0E0,0E0,0E0,0E0,0E0,0E0,0E0,0E0,0E0],"parents":[2147483647,0,0,1,1,2,2,3,3,4,4,5,5,6,6,7,7,8,8,9,9,10,10,11,11,12,12,13,13,14,14,15,15,16,16,17,17,18,18,19,19,20,20,21,21,22,22,23,23,24,24,25,25,26,26,27,27,28,28,29,29,30,30,31,31,32,32,33,33,34,34,35,35,36,36,37,37,38,38,39,39,40,40,41,41,42,42,43,43,44,44,45,45,46,46,47,47,48,48,49,49,50,50,51,51,52,52,53,53,54,54,55,55,56,56,59,59,60,60,61,61,62,62],"right_children":[2,4,6,8,10,12,14,16,18,20,22,24,26,28,30,32,34,36,38,40,42,44,46,48,50,52,54,56,58,60,62,64,66,68,70,72,74,76,78,80,82,84,86,88,90,92,94,96,98,100,102,104,106,108,110,112,114,-1,-1,116,118,120,122,-1,-1,-1,-1,-1,-1,-1,-1,-1,-1,-1,-1,-1,-1,-1,-1,-1,-1,-1,-1,-1,-1,-1,-1,-1,-1,-1,-1,-1,-1,-1,-1,-1,-1,-1,-1,-1,-1,-1,-1,-1,-1,-1,-1,-1,-1,-1,-1,-1,-1,-1,-1,-1,-1,-1,-1,-1,-1,-1,-1],"split_conditions":[1E0,8.2597435E1,5.454196E2,3.0105457E1,2.9668465E-1,-1.169882E2,5.586456E0,8.013686E1,1E0,-2.652324E1,6.671693E0,6.771136E1,1.9928735E0,5.5055485E0,-8.674564E-1,2.7506918E1,2.7979513E1,2.4410595E1,1.113274E0,7.0359215E1,2.553533E-1,2.4598923E1,7.308676E2,1.1316292E0,8.896649E1,7.24378E1,2.0998828E2,8.3592546E-1,2.1438047E3,2.5862207E1,8.530524E2,9.1758364E-1,-6.0505605E-1,2.6848664E0,8.119578E-1,2.9020188E0,1.3305212E3,1E0,3.663524E2,-6.744436E-1,1.2330826E2,8.72004E1,2.2808997E-1,-4.9002868E-1,6.6935855E-1,5.959618E-1,1.0649026E3,3.6921413E0,4.393719E1,3.163599E2,7.820551E-1,1.0794617E0,5.330229E-1,1.0415002E2,1.9693977E0,6.5386786E2,2.9428831E1,-3.9364803E-1,3.2954955E0,5.053609E-1,1.0486146E0,1.2118781E0,3.4805622E0,-2.819056E-1,-4.6163887E-1,-2.091876E-1,-6.463674E-2,-5.552809E-3,-1.948051E-1,2.6216054E-1,-4.066328E-1,-5.03738E-2,1.832781E-2,-1.4469029E-1,-4.632698E-1,3.1292596E-1,2.270841E-1,1.6142888E-1,2.5830898E-1,-8.5714084E-5,-2.746706E-1,-2.2739463E-1,-3.0315113E-1,2.6027933E-1,-3.2469338E-1,3.5657825E0,5.3573452E-2,1.9957407E-1,-1.1306275E-1,-2.6102352E-1,-1.3450797E-1,4.7526605E-2,-6.1126076E-2,-1.6717691E-3,-2.7091807E-1,-9.5125407E-1,-2.1879802E0,-3.5541466E-1,-1.0926555E0,2.6764348E-1,-5.612642E-1,-3.4906858E-1,1.1571505E0,1.2091289E-1,-8.203825E-1,-6.151434E-1,6.9938E-2,1.3425796E-1,-8.433778E-1,6.705957E-1,-7.9638773E-1,4.62563E-1,8.9843684E-1,-7.044436E-1,-2.1063404E-1,-4.152624E-1,-7.055202E-1,-8.328052E-1,-1.6323866E0,2.2555977E-1,1.24129005E-1,7.2831966E-2,-2.279136E0],"split_indices":[25,1,15,15,4,9,16,1,13,9,16,1,2,16,21,0,0,17,8,3,21,3,15,8,1,15,3,21,6,0,15,21,22,3,4,17,15,24,15,21,15,1,7,22,8,12,6,18,15,3,7,2,12,3,18,15,18,0,0,4,12,7,12,0,0,0,0,0,0,0,0,0,0,0,0,0,0,0,0,0,0,0,0,0,0,0,0,0,0,0,0,0,0,0,0,0,0,0,0,0,0,0,0,0,0,0,0,0,0,0,0,0,0,0,0,0,0,0,0,0,0,0,0],"split_type":[0,0,0,0,0,0,0,0,0,0,0,0,0,0,0,0,0,0,0,0,0,0,0,0,0,0,0,0,0,0,0,0,0,0,0,0,0,0,0,0,0,0,0,0,0,0,0,0,0,0,0,0,0,0,0,0,0,0,0,0,0,0,0,0,0,0,0,0,0,0,0,0,0,0,0,0,0,0,0,0,0,0,0,0,0,0,0,0,0,0,0,0,0,0,0,0,0,0,0,0,0,0,0,0,0,0,0,0,0,0,0,0,0,0,0,0,0,0,0,0,0,0,0],"sum_hessian":[1.1420263E7,1.1005266E7,4.1499644E5,9.582365E6,1.4229014E6,3.084426E5,1.0655384E5,2.3063412E5,9.351731E6,1.0605451E5,1.3168469E6,1.3546901E4,2.948957E5,7.7445953E2,1.0577938E5,1.7567475E5,5.495938E4,9.244873E6,1.068575E5,9.6411016E4,9.643491E3,1.9313219E5,1.1237146E6,4.2896454E1,1.3504005E4,8.946861E4,2.0542708E5,7.037914E2,7.066814E1,2.7801257E2,1.0550137E5,5.1971473E4,1.2370328E5,3.7345727E4,1.761365E4,9.080454E6,1.6441934E5,5.8032305E4,4.882519E4,2.0789893E4,7.562112E4,5.4204556E3,4.223035E3,6.2448336E4,1.3068384E5,1.0257753E6,9.793937E4,2.8050522E1,1.4845934E1,1.3113017E4,3.909885E2,1.0293921E3,8.843922E4,2.0477339E5,6.5368207E2,6.80208E2,2.3583363E1,4.310206E0,6.6357925E1,2.3204941E2,4.5963158E1,9.7304195E4,8.197179E3,3.6035367E4,1.5936105E4,7.178684E4,5.1916434E4,1.4277466E4,2.3068262E4,1.587715E4,1.7364994E3,1.2558039E6,7.82465E6,1.4822248E5,1.6196863E4,3.520827E4,2.2824035E4,3.22593E4,1.656589E4,4.569755E3,1.6220138E4,8.083521E3,6.75376E4,4.9434818E2,4.9261074E3,6.185574E1,4.1611797E3,1.126727E4,5.1181066E4,8.503987E4,4.5643977E4,3.3481878E5,6.909565E5,2.1732242E4,7.6207125E4,7.7961836E0,2.0254337E1,1.8437788E0,1.3002154E1,1.2980955E4,1.3206183E2,7.766634E1,3.1332217E2,3.696982E2,6.596939E2,5.305418E2,8.790868E4,2.0449477E5,2.7862985E2,6.013057E2,5.2376316E1,4.990518E2,1.8115623E2,2.2233519E1,1.3498441E0,7.921581E1,1.528336E2,1.824158E1,2.772158E1,8.055113E4,1.675306E4,8.18105E3,1.6128479E1],"tree_param":{"num_deleted":"0","num_feature":"30","num_nodes":"123","size_leaf_vector":"1"}},{"base_weights":[-2.5424475E-3,1.4689822E-1,-4.632515E-2,-5.220009E-1,1.69479E-1,-3.1048179E-2,-6.3317114E-1,-9.5067567E-1,-3.6825448E-1,6.421265E-2,2.7145174E-1,-1.150036E-1,6.0557004E-2,-4.367666E-1,-1.1678846E0,1.6700871E-1,-1.1140687E0,-3.2148772E-1,-1.8403774E0,7.1070427E-1,3.7364524E-2,2.0184168E-1,5.482646E-1,-6.741041E-2,-4.273463E-1,-3.9192668E-1,9.8213285E-2,-1.9160233E-1,-1.0532129E0,-8.935097E-1,-1.517894E0,1.6244924E0,-4.0758917E-1,-1.2496079E0,-5.390315E-1,-1.438995E-1,-6.8210185E-1,-1.9312896E0,6.78535E-1,-5.5958134E-1,8.715127E-1,2.2088282E-1,-7.258818E-2,2.8172603E-1,-3.3976263E-1,5.597685E-1,-3.7490869E0,-2.4494952E-1,2.148812E-2,2.5789064E-1,-4.6328792E-1,8.9244865E-2,-5.203838E-1,2.1833384E-1,-3.944726E-3,1.18203044E-1,-8.0955625E-1,-1.1173161E0,-1.5591722E-2,-1.196327E0,-1.2990531E-1,-1.581964E0,3.4311837E-1,6.4451003E-1,-5.0797E-1,-4.093944E-1,9.240154E-2,-3.9665505E-1,-1.4090289E-1,4.868189E-1,-3.075916E-1,-2.0955518E-2,-5.3723603E-1,-9.484557E-2,-3.9265504E-1,-4.5608202E-1,-7.5078005E-1,3.082518E-1,-1.6219255E0,-2.9683897E-1,1.9147085E-1,-3.9834198E-1,2.803525E-1,-2.491032E-2,1.13082774E-1,4.6619486E-2,-9.136287E-2,1.09434806E-1,7.719219E-3,-1.9991225E-1,-2.8129932E-2,-2.1708438E-1,1.7494671E-1,-1.4967542E0,1.6221358E-2,-1.1124896E-1,-7.54672E-3,2.9060053E-2,-9.052363E-2,4.3390682E-1,-8.035471E-3,-1.4283393E-1,3.4926993E-1,1.218729E-1,-2.2594167E-1,1.7724672E-1,-1.6878343E-1,8.014512E-3,1.23547405E-1,1.5992062E-1,-9.683204E-3,1.314357E-1,-1.0901064E-1,-2.6361492E-1,1.0740791E-1,-2.9620916E-1,-4.2683378E-1,3.6307532E-1,-6.023046E-1,-7.9618335E-2,-3.896814E-1,1.6306189E-1,-4.3734246E-1,-9.4549376E-1,-4.572454E-1,-1.0766654E0,3.0979908E-1],"categories":[],"categories_nodes":[],"categories_segments":[],"categories_sizes":[],"default_left":[0,0,0,0,0,0,0,0,0,0,0,0,0,0,0,0,1,0,0,0,0,0,0,0,0,0,0,0,0,0,0,0,0,0,0,0,0,0,0,0,0,0,0,0,0,0,0,0,0,0,0,0,0,0,0,0,0,0,0,0,0,0,0,0,0,0,0,0,0,0,0,0,0,0,0,0,0,0,0,0,0,0,0,0,0,0,0,0,0,0,0,0,0,0,0,0,0,0,0,0,0,0,0,0,0,0,0,0,0,0,0,0,0,0,0,0,0,0,0,0,0,0,0,0,0,0,0],"id":12,"left_children":[1,3,5,7,9,11,13,15,17,19,21,23,25,27,29,31,33,35,37,39,41,43,45,47,49,51,53,55,57,59,61,63,65,67,69,71,73,75,77,79,81,83,85,87,89,91,93,95,97,99,101,103,105,107,109,111,113,115,117,119,121,123,125,-1,-1,-1,-1,-1,-1,-1,-1,-1,-1,-1,-1,-1,-1,-1,-1,-1,-1,-1,-1,-1,-1,-1,-1,-1,-1,-1,-1,-1,-1,-1,-1,-1,-1,-1,-1,-1,-1,-1,-1,-1,-1,-1,-1,-1,-1,-1,-1,-1,-1,-1,-1,-1,-1,-1,-1,-1,-1,-1,-1,-1,-1,-1,-1],"loss_changes":[7.36213E4,3.8510152E4,7.80194E4,5.4870703E3,2.647461E4,6.5230242E4,2.3187633E4,4.013871E3,4.218501E3,2.1064223E4,2.413961E4,6.578838E4,6.911026E4,2.4405059E4,5.6947344E3,2.3489504E3,1.493832E3,3.8037324E3,4.3336133E2,9.885076E3,2.3511684E4,4.3311082E4,1.2446766E4,6.061334E4,1.4412344E4,1.9260988E4,4.594884E4,2.2119072E4,3.0562734E3,7.6886973E3,3.1081523E3,1.3820657E3,1.3783414E3,8.7768945E2,3.8483682E3,4.8533306E3,4.49471E3,4.2385156E2,1.4668518E2,2.800756E3,5.9521543E3,2.0705514E4,3.853235E4,1.8548523E4,1.0338121E4,7.5359453E3,3.1705908E3,3.545289E4,6.2351016E4,9.867238E3,1.1606523E4,1.7534451E4,1.1541391E4,6.38055E4,3.0787676E4,1.1856281E4,3.115752E3,1.7164375E3,6.5336055E3,2.2740312E3,8.445489E3,2.2816367E3,2.3577524E3,0E0,0E0,0E0,0E0,0E0,0E0,0E0,0E0,0E0,0E0,0E0,0E0,0E0,0E0,0E0,0E0,0E0,0E0,0E0,0E0,0E0,0E0,0E0,0E0,0E0,0E0,0E0,0E0,0E0,0E0,0E0,0E0,0E0,0E0,0E0,0E0,0E0,0E0,0E0,0E0,0E0,0E0,0E0,0E0,0E0,0E0,0E0,0E0,0E0,0E0,0E0,0E0,0E0,0E0,0E0,0E0,0E0,0E0,0E0,0E0,0E0,0E0,0E0,0E0],"parents":[2147483647,0,0,1,1,2,2,3,3,4,4,5,5,6,6,7,7,8,8,9,9,10,10,11,11,12,12,13,13,14,14,15,15,16,16,17,17,18,18,19,19,20,20,21,21,22,22,23,23,24,24,25,25,26,26,27,27,28,28,29,29,30,30,31,31,32,32,33,33,34,34,35,35,36,36,37,37,38,38,39,39,40,40,41,41,42,42,43,43,44,44,45,45,46,46,47,47,48,48,49,49,50,50,51,51,52,52,53,53,54,54,55,55,56,56,57,57,58,58,59,59,60,60,61,61,62,62],"right_children":[2,4,6,8,10,12,14,16,18,20,22,24,26,28,30,32,34,36,38,40,42,44,46,48,50,52,54,56,58,60,62,64,66,68,70,72,74,76,78,80,82,84,86,88,90,92,94,96,98,100,102,104,106,108,110,112,114,116,118,120,122,124,126,-1,-1,-1,-1,-1,-1,-1,-1,-1,-1,-1,-1,-1,-1,-1,-1,-1,-1,-1,-1,-1,-1,-1,-1,-1,-1,-1,-1,-1,-1,-1,-1,-1,-1,-1,-1,-1,-1,-1,-1,-1,-1,-1,-1,-1,-1,-1,-1,-1,-1,-1,-1,-1,-1,-1,-1,-1,-1,-1,-1,-1,-1,-1,-1],"split_conditions":[8.3859265E-2,7.24378E1,9.529975E2,8.190359E0,3.85871E0,8.591111E0,2.3983475E1,-3.0982157E1,5.8881506E-2,1.9298212E1,2.1554922E1,5.1207404E2,4.573117E-1,1.2601904E3,-4.9002868E-1,1.3461658E0,1.4315866E-1,3.872228E-2,1E0,-4.3392086E1,2.4284972E-1,3.6210757E2,2.320187E0,6.8802424E-2,5.4171653E0,1.1250099E0,1.5512217E0,1.1824915E3,-6.0788393E-1,-2.5906326E1,8.206694E-1,2.3312867E-2,2.7506918E1,9.9421793E-1,6.3679672E1,4.8084474E0,5.317324E-1,8.860193E-1,-9.5157616E-2,2.260415E1,2.3030567E-1,8.11575E0,2.761829E2,1.6497787E0,2.5487418E0,-7.8830504E-1,1.01216736E2,5.130081E0,1.6179309E0,-1.8049282E-1,1E0,6.204552E2,7.5226105E1,5.225512E2,-9.721182E-1,2.2203812E1,9.9325687E-1,7.313898E-1,6.2650943E0,2.9718594E1,2.5698257E1,